{[[[ 0.65161675]]

 [[-0.16675755]]], [[[0.00315606]]

 [[0.69970435]]], }

{-0.773885, }

{{0.46744868, 0.059944265, -0.17011048, 0.37188452, 0.3013428, 0.06523109, -0.57859623, -0.29059312, -0.1362847, -0.045872636, -0.29503492, 0.060784206, -0.1083147, 0.19754682, -0.40495107, 0.0077679306, }, 
{-0.054118272, -0.09874083, 0.32264307, 0.26200604, 0.06397072, -0.22831829, 0.15394075, 0.32778722, 0.11932656, -0.36925653, -0.19724338, -0.015089272, 0.18378168, -0.11816796, -0.04768357, -0.077931255, }, 
{0.21166056, 0.5471797, 0.009159138, 0.110981904, -0.120891884, 0.011085223, -0.45063585, -0.14665204, -0.2118191, -0.9856254, 0.031156717, -0.5076098, 0.21286362, 0.04294927, 0.02027495, 0.44653985, }, 
{-0.23571153, -0.3991666, 0.24225463, 0.043675963, 0.2003232, 0.19955494, -0.012251206, -0.15532054, 0.3650684, 0.33971184, -0.41759375, 0.3374907, 0.26494738, 0.3354985, 0.013769018, 0.26709127, }, 
{0.20583713, -0.31074268, 0.09393478, -0.1402941, -0.249695, 0.24919122, 0.012676267, -0.27266657, -0.20989375, -0.14592469, -0.041492138, -0.091184326, -0.018847942, -0.502105, -0.36743802, 0.21067806, }, 
{-0.06960276, 0.31700456, 0.29157525, -0.07769291, 0.2555082, -0.22526145, 0.12099235, -0.2818405, -0.22160275, -0.08111489, -0.2950256, -0.54400164, 0.008285814, -0.040203087, -0.2583239, 0.20899302, }, 
{-0.10333421, 0.37277105, 0.038054068, 0.08233142, -0.11425884, 0.22141571, 0.2473331, 0.3333669, 0.20595573, 0.027706727, -0.47888258, 0.21579705, 0.34340718, 0.23428567, -0.1633745, 0.1585621, }, 
{-0.18796241, -0.35813826, 0.36645302, -0.21241634, 0.039056398, 0.2111137, -0.035820667, 0.33318925, -0.12579197, -0.5030305, -0.2967297, -0.64765674, -0.36826015, 0.020327933, -0.19411464, -0.40094972, }, 
{-0.101281814, 0.5470844, 0.121243976, -0.017627789, 0.08614291, 0.023252392, 0.11698392, 0.49549764, 0.24848817, -0.6124263, -0.14489247, -0.6397543, -0.059593555, -0.21272464, -0.119629055, -0.056285538, }, 
{0.2378928, -0.39162675, -0.05731995, -0.2990213, 0.109512486, -0.43919954, 0.16090107, 0.0155678345, 0.47877577, -0.06385358, 0.021522345, -0.05053387, 0.086590424, -0.17950182, 0.39029956, 0.040061373, }, 
{-0.23225546, 0.094234966, -0.18578307, 0.10209835, 0.5766353, -0.35335076, 0.31926692, 0.38105112, 0.30182013, 0.2565598, 0.26190713, -0.03573664, 0.009723951, 0.07262209, 0.24438265, 0.5527951, }, 
{0.31415436, 0.036822062, -0.14248973, -0.039416574, 0.22866578, -0.14036062, -0.22338453, 0.41269007, 0.4210841, -1.1541339, -0.2835978, -2.02499, 0.1684286, 0.6304355, -0.44421932, -0.38772452, }, 
{-0.1952972, -1.0047009, 0.25751746, 0.6584316, -0.40036753, 0.5363175, -0.22721334, 0.024254926, -0.06634345, -0.19217382, 0.051267114, 0.021015083, -0.11702689, -0.2525545, -0.40686372, 0.093679205, }, 
{0.33993244, 0.089772634, -0.14360626, 0.35664305, -0.18458915, -0.223805, -0.17649674, -0.074251235, 0.112741224, 0.2123371, -0.052153498, -0.24193743, 0.06826027, -0.2640309, -0.20371357, -0.3916729, }, 
{0.40879333, -0.03629407, 0.01782139, -0.05328397, -0.40435562, 0.4602657, -0.08325102, -0.38193735, -0.0137239145, -0.3836039, 0.35415873, -1.4295139, 0.29796728, 0.121131875, -0.35361686, -0.09043931, }, 
}

{-0.3142768, 0.07119682, -0.7814043, 1.629775, -0.865463, 1.3486814, 1.2880864, -0.94367003, -1.0879416, 0.64361906, -0.062930465, -1.3850385, -1.0579622, 1.0952241, -0.019628663, -1.2763876, }

{{0.659128, -0.5015759, 0.8986713, 0.10617353, 0.06891835, -0.13091084, -0.057020307, 0.06801976, }, 
{-0.051723532, 0.32461426, 0.22913575, -0.036352135, -0.34440556, 0.81058997, 0.1339525, 0.1457722, }, 
{0.079667695, -0.060103945, 0.022804393, -0.37144285, -0.19447474, 0.407231, 0.036024068, 0.20161855, }, 
{0.53027153, 0.26365346, 0.3605929, -0.21160887, -0.30636847, -0.46919325, -0.008377188, -0.1721348, }, 
{0.41526955, 0.22217606, 0.001744387, -0.049503576, 0.38107532, 0.4059294, 0.02890447, -0.48794028, }, 
{0.39294422, -0.2192986, 0.39746788, 0.051241275, -0.29493132, 0.18958889, -0.132994, -0.0002659359, }, 
{0.02385497, -0.6770029, 0.019040992, 0.07237198, -0.4674604, -0.30317986, -0.5831696, 0.15845764, }, 
{0.43941736, -0.32944328, 0.16111322, -0.028278282, 0.36170247, 0.5129022, 0.37882653, -0.15647222, }, 
{-0.07434259, 0.26217532, 0.62552613, -0.37768105, -0.41445482, 0.4226758, 0.44600803, -0.0023186647, }, 
{0.41675705, -1.0645599, -0.9253289, -0.00653983, 0.23216212, -0.9184323, -1.2183441, -0.28683537, }, 
{-0.058410563, 0.13139822, 0.29396158, 0.22190928, -0.13211024, -0.368676, 0.45343134, -0.24114847, }, 
{-0.77660346, 0.7067695, -0.05082666, 0.27622634, 0.16944802, 0.66559374, 0.36169624, -0.13141121, }, 
{0.07344707, 0.5229571, 0.28593314, 0.3430691, 0.30407903, -0.06630395, 0.1436599, -0.48919705, }, 
{0.68895227, 0.08893606, 0.39949507, -0.18508942, -0.032544877, -0.4400458, -0.05920109, -0.44694346, }, 
{0.22124514, -0.1519854, -0.37008435, -0.34539688, -0.11287618, 0.0018336402, 0.17615105, -0.10600284, }, 
{-0.023642313, 0.42492047, -0.09205757, 0.12650606, -0.42081785, -0.24214554, 0.28916144, -0.39035505, }, 
}

{1.1950243, -0.936973, -0.31874767, -0.091964245, -0.03658879, -1.0236388, -1.0669141, -0.052148443, }

{{-0.05609183, -0.7426831, -0.44698337, -0.41494355, }, 
{0.66569304, 0.04832988, 0.6345187, 0.8608646, }, 
{-0.25094151, -0.5895992, -0.49425852, 0.30370402, }, 
{-0.56453836, 0.17037533, -0.30712405, -0.4071714, }, 
{-0.4784823, -0.5809535, -0.34426826, -0.42834717, }, 
{0.85676986, 0.58221924, -0.53938496, 0.52642876, }, 
{0.52601755, -0.22532544, -0.6578934, 0.5082768, }, 
{-0.2974321, -0.03261207, -0.038842678, -0.20678888, }, 
}

{-0.976472, 0.030032082, 0.03384116, -0.9593117, }

{{-0.36840847, 0.7235516, }, 
{-1.0580682, -1.8870728, }, 
{0.29611343, 0.881043, }, 
{1.0301194, 0.28675312, }, 
}

{-0.8519074, -0.87249655, }

{{0.24774064, }, 
{0.66727155, }, 
}

{-0.12401194, }

