{{-0.05071079, -0.2279134, 0.5447777, 0.12220598, 0.19939299, 0.065869994, 0.7506201, 0.33564866, 0.17105702, 0.5204587, -0.2823718, 0.08838257, }, 
{0.5521431, 0.56585264, -0.47873455, 0.17029612, 0.29024413, 0.28305683, -0.497924, -0.46731088, 0.25627443, -0.07548677, -0.096751876, -0.06936428, }, 
{-0.5934507, -0.06787274, -0.1233725, -0.5567845, 0.041359663, 0.5292572, 0.27385205, 0.3875696, -0.6048893, -0.22453389, -0.5435734, -0.30312428, }, 
{0.05667742, 0.43945664, -0.59521556, 0.028060082, -0.3184943, 0.2646643, -0.25852522, -0.61991334, -0.34200263, -0.05462125, -0.6905982, -0.009582745, }, 
{0.08842944, 0.021657355, -0.29503435, -0.4110409, 0.32874754, -0.16937552, -0.3490038, -0.5326295, 0.044913854, -0.48463777, 0.28012943, 0.26276883, }, 
{-0.2756072, -0.17145835, 0.21112266, -0.29797524, 0.18135841, -0.13448149, 0.15791276, 0.19503185, -0.16666779, -0.08790332, 0.071688294, 0.04546291, }, 
{-0.11454326, 0.4161616, 0.24936897, -0.29895845, -0.33408707, -0.07368491, -0.3625161, -0.057617534, -0.08881496, 0.11243013, -0.01804168, 0.44830883, }, 
{0.69563216, 0.5271216, -0.5343538, 0.05349696, 0.3382639, 0.52578473, -0.12713137, -0.35467428, 0.1976729, -0.601995, -0.23241532, 0.061566338, }, 
{0.8386166, 0.4431009, -0.018364364, -0.011408001, 0.5459537, -0.27862564, -0.25785932, -0.47310323, -0.044783898, -0.45250556, 0.21605851, -0.37981012, }, 
{-0.13580431, -0.016913427, -0.30843532, -0.03779322, 0.08413455, 0.55247533, -0.7514401, -0.11302771, -0.08226568, 0.10005801, -0.692075, 0.5969684, }, 
{0.03780531, -0.22937594, -0.58099216, -0.930551, -0.49279684, 0.31932667, -0.4270218, -0.36615503, -0.10502121, -0.071934044, -0.9266673, 0.055950876, }, 
{0.51348263, -0.2883605, -0.22808415, -0.6134557, -0.12843712, 0.2785354, -0.22344826, 0.5073922, -0.57989186, 0.35988912, -0.38833758, -0.25901788, }, 
}

{0.51348263, -0.2883605, -0.22808415, -0.6134557, -0.12843712, 0.2785354, -0.22344826, 0.5073922, -0.57989186, 0.35988912, -0.38833758, -0.25901788, }

{{-0.6494259, 0.17948523, 0.5983376, 0.34022355, 0.28632098, 0.4166617, }, 
{-0.20505163, 0.8090194, 1.337048, 0.27315846, 0.121816635, 0.69121414, }, 
{1.2359998, -1.0787034, -0.48688725, -0.033153422, 0.7861741, -0.1767764, }, 
{-0.38832387, -0.15004691, 0.4636595, -0.14757137, 0.6283012, -0.01750507, }, 
{0.3059881, 0.24427576, -0.12588331, 0.50837666, 0.21040885, -0.2371027, }, 
{-0.295167, 0.15286388, -0.48466498, 0.054466438, -0.80962855, 0.5153825, }, 
{0.45234087, -0.71040225, -0.7221951, -0.59279996, 0.8180686, -0.57332003, }, 
{0.8779208, 0.1035344, -1.0358176, -0.09127973, 0.23616819, -0.8529206, }, 
{0.18653446, -0.1858065, 0.4646128, -0.09132169, 0.44497612, 0.75287056, }, 
{0.36533368, -0.31110108, 0.16842873, -0.569339, -0.22182752, -0.6237951, }, 
{0.6518162, -0.15949424, 0.53556097, 0.3497786, 1.1249769, 0.11982207, }, 
{0.17694928, 0.4179338, 0.22108878, -0.20976739, -0.14041749, -0.1787921, }, 
}

{0.17694928, 0.4179338, 0.22108878, -0.20976739, -0.14041749, -0.1787921, }

{{-0.5872819, 0.010473961, -0.4345072, }, 
{0.57713926, -1.0808254, 0.123027876, }, 
{0.88044024, -0.34816208, -0.2329739, }, 
{0.8320907, -0.4836249, -0.24866614, }, 
{0.65548056, 1.4394214, -1.2179341, }, 
{0.58467984, -0.63500744, -0.34115165, }, 
}

{0.58467984, -0.63500744, -0.34115165, }

