{{0.13105942, -0.5746595, -0.25046372, -0.44842732, -0.065366186, 0.2355006, 0.15734136, -0.061617948, 0.49174327, -0.18014337, -0.31894138, 0.28813532, }, 
{0.8911181, 0.33615997, 0.27119294, 1.270828, 0.5684022, 0.40958238, 0.59232813, 1.133973, 1.2101371, 0.3535268, 0.39837876, 0.108952284, }, 
{0.26458797, 0.5428085, 0.42437735, 0.3442411, 0.7757, 0.8953403, 1.3081558, 1.097917, 1.1788654, 1.2029626, 1.1774294, 0.8712318, }, 
{0.8433181, 1.060845, 0.93137026, 0.6853362, 1.1534293, 0.5195807, 0.5703373, 1.1746913, 0.50203013, 0.3328141, 1.0403455, 1.1149998, }, 
{1.2042043, 1.1216193, 0.4727771, 0.96737987, 0.5151208, 1.2165521, 0.8541447, 0.7078887, 1.5264297, 1.2295519, 0.8433674, 1.2260644, }, 
{0.44108352, 0.3220084, 0.93542606, 0.7615588, 0.4476356, 0.7479025, 0.7636223, 0.8838603, 0.91596156, 0.7181341, 0.8222998, 0.5826065, }, 
{-0.17971265, -0.18991016, -0.0862655, -0.38562566, -0.08681956, 0.17347245, -0.075128466, 0.21381414, 0.038548328, 0.12486694, -0.23061708, 0.05325512, }, 
}

{-0.17971265, -0.18991016, -0.0862655, -0.38562566, -0.08681956, 0.17347245, -0.075128466, 0.21381414, 0.038548328, 0.12486694, -0.23061708, 0.05325512, }

{{1.1687284, -0.5121419, -1.0476543, 0.91361415, 1.1483134, -0.7623607, }, 
{1.0405027, -0.96961284, -0.28843355, 1.0633932, 1.1342955, -0.5574064, }, 
{0.31677154, -0.83797246, -0.85825276, 0.3771528, 0.42007166, -0.6529658, }, 
{0.99726224, -0.37619787, -0.23881374, 1.1544455, 0.7732161, -0.97744507, }, 
{1.1277783, -1.13957, -0.7489509, 0.028583184, 0.6832313, -0.6515951, }, 
{0.6333604, -0.7969977, -0.31057456, 0.85930496, 1.0769743, -1.0152127, }, 
{0.66583604, -0.8140393, -0.20427507, 0.30612722, 1.034657, -1.1612204, }, 
{1.6070921, -1.113189, -0.92548025, 1.8176295, 1.9741963, -1.8637526, }, 
{0.8848279, -1.8287567, -1.3655167, 1.8041955, 2.0128813, -1.7999126, }, 
{1.8757229, -0.9679789, -0.9204722, 1.6244259, 1.8271087, -0.7245799, }, 
{0.31353402, -0.99100775, -0.93183494, 0.68342835, 0.22536391, -0.0946233, }, 
{0.58064604, -0.7998122, -1.1447202, 0.20385839, 0.13283776, -0.17792945, }, 
}

{0.58064604, -0.7998122, -1.1447202, 0.20385839, 0.13283776, -0.17792945, }

{{-0.638223, -1.1002332, 1.0375719, }, 
{1.4881947, 0.27431634, -1.0364561, }, 
{0.92717373, 1.2926185, -0.998739, }, 
{-1.1537915, -1.2450757, 1.2374729, }, 
{-1.471432, -0.34553277, 1.0152107, }, 
{0.88929254, 1.2751402, -1.3235369, }, 
}

{0.88929254, 1.2751402, -1.3235369, }

{{1.0549979, }, 
{1.2641724, }, 
{-0.8888708, }, 
}

{-0.8888708, }

