{{-0.46226585, 0.5269815, -0.3067221, -0.26700497, 0.29577234, 0.13579676, -0.41037318, -0.18328096, 0.0063515804, -0.1741073, -0.4375478, 0.3708761, }, 
{0.012914344, 0.46920034, -0.0389119, -0.104301415, -0.8492275, 0.33963257, -0.1862008, -0.0301712, 0.22274408, -0.03985675, -0.331877, -0.08170979, }, 
{0.27708778, -0.274514, -0.6098677, 0.16443841, -0.50396866, 0.6436551, 0.5002644, -0.2754672, -0.27130425, 0.01687464, -0.25764057, 0.118166484, }, 
{0.39844677, 0.23941195, -0.3217176, 0.14493996, -0.05812692, 0.21834081, 0.40049696, 0.4557214, 0.20471507, 0.57771254, 0.33818525, 0.531413, }, 
{-0.18299153, 0.036171906, -0.66113347, -0.010713133, -0.2124261, 0.10710633, -0.28586197, 0.050254103, -0.28301907, 0.29822636, 0.2151318, -0.50169194, }, 
{0.16653714, 0.61569244, -0.6597553, 0.28476062, -0.8257169, 0.5486765, 0.28659728, 0.5353228, -0.20600611, 0.00972823, -0.124179825, 0.01598456, }, 
{0.38280725, 0.34288275, -0.5245763, 0.2222177, 0.5090582, -0.15179259, 0.4200706, 0.1161235, 0.2999322, 0.033957914, 0.29486412, 0.3452934, }, 
{-0.49856552, 0.63496006, -0.9964062, -0.79920644, -0.87794095, 0.2710906, 1.0957769, -0.024516173, -0.2562738, -0.65466726, -0.71082574, -0.028771413, }, 
{-0.26951665, 0.3543064, -0.17314255, 0.08550278, -0.84795433, 0.44946724, -0.3434259, -0.18375902, 0.03779823, -0.61467063, 0.01605055, -0.6773717, }, 
{-1.5040135, 0.8874662, -1.1578752, -1.5778815, -0.22512266, 1.052677, 1.4279565, 1.3469911, -1.4975046, -1.7203801, -1.6784178, -0.83691835, }, 
{0.5503893, -0.8777696, 1.4199935, 1.1297792, 0.67862374, -0.58553994, -0.3796505, -1.166303, 1.0702566, 1.2183908, 0.7863695, 1.2573751, }, 
{-0.72156036, 0.37682706, -0.18872142, -0.97592974, -0.6712547, 0.35491478, 1.0807494, 0.15936565, -0.4116145, -0.27316982, -0.101683564, -0.07884589, }, 
{0.41135898, -0.09413763, 0.44657773, 0.18676485, 0.009567761, -0.28594217, 0.3687083, -0.22766852, 0.30778807, -0.40210694, -0.13283348, -0.15773769, }, 
}

{0.41135898, -0.09413763, 0.44657773, 0.18676485, 0.009567761, -0.28594217, 0.3687083, -0.22766852, 0.30778807, -0.40210694, -0.13283348, -0.15773769, }

{{0.5688041, 0.39379463, 0.4066364, -0.4230545, -0.5687139, 0.48345655, }, 
{-0.6775344, -0.13750169, 0.637887, 0.16161694, 0.2222027, -0.8291678, }, 
{1.1362009, -1.2234261, -1.7814171, -1.9934164, -0.683725, 1.2065394, }, 
{0.6589338, -0.70307446, -0.24113515, 0.22792128, -0.7545775, 0.45355004, }, 
{-0.99336976, -0.007141645, 0.090542614, 0.96359265, 0.45953634, -0.5663919, }, 
{-0.95387256, 0.028301349, 1.141515, 0.86953896, 0.5846626, -0.66363376, }, 
{-2.1965642, 1.6336845, 1.9667981, 2.5625563, 1.8073294, -1.7521646, }, 
{0.23901965, 0.7417741, 0.7509696, 0.41808295, 0.5384355, -0.7757497, }, 
{0.3623237, -0.30422276, -0.7391543, -0.69143105, -0.08670103, 0.7354014, }, 
{0.14572883, -1.0317109, -0.42261678, -0.7871748, -0.9012942, 0.7216384, }, 
{0.9619532, -0.86922103, -0.36720267, -0.05098739, -0.11475717, 0.49407604, }, 
{0.7194319, -0.44797075, -0.8326008, -0.93573713, -1.1351675, 0.86941135, }, 
}

{0.7194319, -0.44797075, -0.8326008, -0.93573713, -1.1351675, 0.86941135, }

{{-1.5798581, -0.60026276, -1.4916835, }, 
{0.7389891, 0.8026363, 0.87745816, }, 
{1.8216653, 0.8732132, 1.978758, }, 
{5.2192507, 4.201118, 5.124541, }, 
{0.92865735, 0.30924752, 0.6299092, }, 
{-0.60183823, -1.2826715, -0.74480116, }, 
}

{-0.60183823, -1.2826715, -0.74480116, }

{{-1.3619397, }, 
{-1.5127485, }, 
{-1.2049419, }, 
}

{-1.2049419, }

