{{-0.016841348, -0.4211652, -0.016830895, -1.2896935e-05, 1.3631903, 1.5497385, -0.33881018, 0.35905927, -0.009053492, 0.9434656, 0.0923872, -0.09726393, -0.100348085, 0.666929, 0.07568399, -0.003333725, -0.026108453, 0.028551036, -0.54341376, 0.8193474, -0.6622601, 0.016625775, -0.06448074, -0.47296718, 0.010354447, 0.008998204, 0.017697647, 0.004790233, -0.070240505, -0.052074574, -0.39284036, 0.049261313, -0.053112384, -0.43610412, -0.4510776, -0.027036468, -0.0048732287, -0.061309386, -0.05239247, -0.11449652, -0.02010279, -0.040383242, -0.6360055, -0.06845452, -0.004018971, 0.0046158102, 0.0025541119, -0.0024770673, }, 
{-0.029340679, -0.27197263, 0.035222095, -0.0023556813, 1.2147759, 1.3933891, -0.18796267, -0.14165562, 0.027189031, 1.2565414, 0.008593949, 0.1864416, 0.1214242, 0.4416879, -0.051796246, -0.042239066, 0.025732359, 0.021490604, 0.10843889, 0.8069051, 0.38112068, -0.052680876, 0.08165786, -0.16532649, -0.13148357, -0.108069874, -0.08518194, 0.014202297, 0.030561814, 0.061297685, -0.4660922, -0.053714782, 0.032383732, 0.031711295, -0.39979237, -0.009703814, -0.076387234, -0.105918124, 0.010513425, -0.12625551, 0.016876038, 0.01936767, -0.37415746, 0.069434196, 0.025464756, 0.02670827, 0.095591836, 0.037773576, }, 
{0.11203233, 0.11939902, -0.10632558, 0.074228704, -0.5571101, -0.16894567, 0.20553058, -0.5790352, 0.08915121, -1.2024772, -0.034863446, -0.7004995, -0.9372453, 1.312811, 0.03164784, -0.07788771, -0.020081049, -0.0033565469, 0.536519, -2.3184178, -0.44634002, -0.0077808807, 0.054407, -0.29873568, 0.068776004, -0.048934292, 0.05397984, -0.018054152, 0.06708356, -0.024571743, 0.7860291, -0.004161817, -0.06697131, -0.009357941, 0.09507338, 0.02714713, -0.07772734, 0.07662768, 0.008010679, -0.016342944, 0.019689946, -0.04204103, 0.9928856, -0.0058955373, 0.03691393, 0.050604034, -0.0037243539, -0.04877214, }, 
{0.083134644, 0.3328063, -0.004914629, -0.0060994155, -0.56748855, -1.0227175, -0.03146961, -1.2610514, -0.0017969286, 0.13092352, 0.06530403, 0.036237575, -0.102293864, 0.47744176, -0.04850331, 0.042364266, -0.033929672, 0.012143863, 0.8248648, -0.56554145, 0.033044588, -0.011534416, 0.011479247, 0.76618296, 0.15123211, 0.010486545, -0.007567151, 0.045182895, -0.08882092, -0.04726984, 0.10678846, -0.083074205, -0.0061320043, -0.1780401, 0.39602992, 0.07284867, 0.06839361, 0.023174766, 0.015558223, 0.06782938, 0.038493592, -0.050449222, -0.71312606, -0.021636285, -0.055463433, 0.019664356, -0.0528014, -0.06457941, }, 
{-0.027041584, 0.11275788, 0.017036038, 0.05127492, 0.58407634, 0.6349329, 0.13122621, 0.34503698, 0.018257275, 0.5310397, 0.05602139, 0.12234583, 0.057854664, 0.5412553, 0.047263812, 0.009181037, -0.08431163, 0.09688189, -0.2024602, 1.0871177, -0.34249672, 0.0019991274, 0.032176275, 0.2349774, 0.062729746, 0.040548075, 0.07555439, 0.010063899, 0.08545002, 0.015954917, 0.012970785, -0.027895307, -0.00060958945, 0.15195447, 0.07728188, 0.029071137, -0.039155167, -0.015917256, 0.04219989, 0.057890967, -0.04211269, 0.018153606, 0.69708014, 0.105661586, 0.02561864, -0.008925993, 0.03425489, 0.01503507, }, 
{0.05488648, -0.4266267, -0.017212609, 0.035218198, 1.4428843, 1.4366825, -0.691825, -1.4599009, -0.009740558, 1.7727973, -0.03845085, -0.49124566, -0.5595926, -0.69418496, -0.032894056, 0.03585838, -0.025373897, 0.0013937895, -0.97592413, -0.5266934, -1.0806992, -0.04427764, 0.020773768, -0.05086585, 0.07627391, 0.03760509, 0.06668069, 0.00874054, 0.036242675, 0.0028279552, -0.4759553, -0.008365366, 0.0015720511, -0.48275125, -0.65118295, -0.07688238, -0.051630627, 0.07183234, -0.052168842, -0.031605743, 0.016749801, -0.030558283, 0.062063795, -0.056974497, -0.0437525, 0.002828485, -0.06532537, -0.011121633, }, 
{0.03734364, -0.55780894, 0.07442316, -0.11237413, 0.3375881, 0.30244452, 0.9189682, 0.33314222, 0.023719028, 0.39775383, 0.027960064, -0.100218736, -0.10133309, -0.31192192, -0.097503215, 0.059546776, -0.032989156, -0.025687223, -0.6626073, 0.8591262, 0.55178475, 0.004058848, -0.018282074, -0.5808753, -0.012972541, -0.019438123, 0.0063781114, 0.113807715, 0.033145044, 0.06583008, -0.8010538, 0.056107588, 0.04376448, -0.054754134, -0.39514232, -0.04864644, -0.0127440095, 0.03211006, 0.05687819, 0.037259564, -0.0082472395, 0.0314418, 1.7000453, -0.032255035, -0.036820807, -0.019412255, 0.010208961, 0.018923234, }, 
{0.0030894573, -0.5915987, -0.045035455, 0.02524879, 0.42278188, -0.29676017, -0.5045823, -0.2673357, 0.026910035, 0.4593671, 0.0538761, 0.1199574, 0.121270664, 1.4387134, -0.0047966694, 0.027449533, 0.014197836, 0.011416745, -0.70086646, 1.0237023, 0.3634511, -0.03272275, 0.013604181, -0.13500041, -0.01976582, -0.04645646, -0.07621043, 0.014882146, -0.024896987, -0.1282291, -0.66541153, -0.032976456, -0.027819982, -0.39624014, -0.47574186, -0.009470092, 0.018827647, -0.02034024, 0.016739808, -0.018611895, 0.044132825, 0.08641541, 0.22953986, 0.023020461, -0.033423062, -0.06558996, 0.033785935, 0.06470143, }, 
{-0.08208321, -0.5081634, -0.03888485, -0.015520337, 3.116619, 2.2516313, -0.7595452, -0.23352428, 0.02613735, 1.9009831, -0.052734844, -0.100816555, -0.6313545, 0.5156526, -0.011194825, -0.03453017, 0.11286955, 0.034909133, 1.3290752, 1.1825744, -0.5025135, 0.009833463, -0.019605309, -0.59908974, -0.05820104, -0.0766831, -0.028859219, -0.110681705, 0.016263237, -0.027584659, -0.4915486, 0.057665497, -0.053293496, -1.952471, -1.2162304, 0.029453738, 0.03770111, 0.021180445, -0.019839963, 0.03366097, -0.00012613345, -0.015682703, -0.025293188, -0.015951928, 0.06647604, 0.041524168, -0.092293434, -0.04685881, }, 
{0.00093848753, -0.9082616, 0.055838265, 0.10401042, 2.003117, 1.9816221, -1.0523049, -1.1889588, 0.05713406, 1.9541397, -0.011115497, -1.0233712, -0.9556485, -0.725058, -0.013244487, -0.0421748, 0.07235387, -0.009457013, -3.4667294, -0.8072377, -0.4490552, -0.016819904, 0.009494459, -1.2558739, -0.05901465, -0.038651254, 0.07510226, 0.040051978, -0.026000677, -0.103158414, -0.83665204, 0.0049977354, -0.022973238, -1.041859, -1.0093906, 0.031583525, -0.07271278, 0.03283201, -0.06929819, 0.046995096, 0.011036455, -0.12936859, -1.7287065, 0.07750755, 0.035213165, -0.05738317, 0.03995825, -0.054432638, }, 
{-0.04961241, -0.07812229, 0.05409457, 0.00021972762, 0.34540483, 0.6269917, 0.2090306, 0.43953836, 0.088299096, 0.4293528, -0.06649626, 1.3161358, 1.2454422, -1.6821334, 0.06694751, 0.02035935, -0.0046093576, 0.0061323363, 2.0117185, 2.0931091, 1.5926383, -0.0110118305, -0.009841592, -0.34254438, 0.005435211, -0.062451493, 0.06082211, -0.08232017, 0.06536609, -0.066635996, 0.20525663, -0.007730341, -0.07421413, 0.031695027, 0.06910726, 0.05988693, 0.0055208253, -0.007463068, 0.079516634, 0.04512798, 0.03038607, 0.11192345, 0.46416068, 0.0075919623, 0.01881351, 0.047464777, -0.022056928, -0.06576487, }, 
{0.017937118, 0.3434988, -0.06785523, -0.006783355, 2.7926912, 2.89927, 0.011948284, -0.03250767, -0.0035972793, 2.3818786, -0.06944758, -0.18303977, -0.6751937, -0.69692415, -0.06008196, 0.026362613, 0.062521614, 0.117186025, -1.3767408, 1.3204207, -0.29250187, -0.10869443, 0.003869443, 1.0121285, -0.03092963, -0.048514742, -0.049518663, 0.012544788, -0.058771946, -0.052977312, -0.74617016, 0.017108794, 0.09086767, -0.113255925, -0.5578645, 0.034625147, 0.0059340824, 0.04507844, 0.060666252, 0.109634735, 0.028780514, -0.02457426, 0.39155516, -0.005963437, 0.039942075, -0.034939565, -0.03588068, -0.018562987, }, 
{-0.042139955, -0.04257273, 0.02062715, -0.02852009, 0.054350678, -0.10053295, 0.024027353, 0.06611384, 0.09899411, -0.0039440123, -0.03912973, -0.0041560465, -0.018121377, -0.029851764, 0.025224162, 0.0696537, 0.070623904, 0.0387943, -0.0042518987, 0.064768866, 0.048167557, -0.05409642, 0.07145909, 0.013601418, 0.031012509, -0.018384831, -0.014786633, -0.08178316, 0.0956029, -0.010338658, -0.014542113, -0.06611985, -0.09853868, -0.08725538, 0.021429168, 0.031713862, 0.017910378, -0.013272643, 0.010450448, 0.01702406, -0.03154335, -0.048486967, -0.03962652, 0.03869515, 0.042827077, -0.10681583, 0.06707875, -0.012932368, }, 
{-0.0038822645, 0.18440633, -0.058063228, 0.0055435174, -0.039826207, 0.099637754, 0.18230435, 0.225988, 0.021982294, 0.057648618, -0.052435912, 0.26068, 0.19870284, 0.049351748, 0.07097473, -0.1170273, -0.013476257, 0.07238359, 0.10393068, -0.08755847, 0.032873742, -0.045265537, -0.020141935, 0.14251395, -0.035140436, 0.011652577, -0.002625317, -0.0743812, 0.026930002, -0.018376056, 0.20727186, -0.015823616, 0.03383945, 0.21028976, 0.164069, 0.031138694, -0.086960025, 0.020882571, -0.04774722, 0.05421099, -0.07749539, 0.013827247, 0.09905891, -0.10548689, -0.0011334846, 0.014151747, 0.00825329, -0.08680617, }, 
{0.018841911, 0.015446045, 0.04318429, -0.026346577, 0.04216398, 0.024482716, 0.030789465, 0.15709785, -0.07224868, -0.0024267645, -0.047115363, -0.003498761, 0.036171734, -0.06049493, -0.016149221, 0.059931394, -0.027844524, -0.035360884, 0.11121892, -0.030785736, 0.061141603, -0.069889106, -0.0042193513, 0.030840399, -0.059798457, 0.0604241, -0.14968792, 0.08762968, -0.02675601, 0.0607461, 0.069025606, -0.021419689, -0.04886381, -0.0112872645, -0.012275385, -0.0412075, -0.07292045, -0.02550349, -0.055469573, 0.024083924, 0.099791214, 0.041078947, -0.019358952, -0.116325654, -0.03430469, 0.021880131, 0.024804536, 0.03748957, }, 
{-0.031449504, 0.017529689, -0.025062228, 0.035271164, -0.0052635763, -0.0069006016, 0.016034786, -0.028522514, 0.06529329, 0.04582086, -0.015799679, 0.038300656, -0.023552703, -0.012972984, -0.066959836, 0.014463598, -0.06862692, -0.0020532159, -0.013338095, 0.012312807, 0.0035302676, -0.03340638, -0.045435864, 0.021520281, 0.009762446, -0.05483794, -0.045738637, 0.010667907, -0.023040995, -0.04958337, -0.068482555, -0.025282769, -0.004366383, -0.051909026, -0.0021498785, 0.08915321, -0.13500758, -0.084809646, -0.020334153, 0.0064223874, -0.018365838, 0.062201995, 0.059169617, -0.05744032, -0.01447504, 0.05335733, -0.1481146, -0.08071384, }, 
{0.061647017, 0.0682176, -0.0874111, -0.13596788, -0.12734221, -0.10827266, -0.033674188, -0.11517378, 0.004578527, -0.018729175, 0.014914866, -0.020614626, -0.047710873, -0.0014947377, -0.07772355, -0.028750524, -0.04195852, -0.005879143, -0.017731095, -0.106890954, 0.011465169, -0.001115895, 0.033937007, -0.018059814, -0.01714093, 0.012780934, 0.049217883, 0.022947704, 0.059202906, -0.029157337, 0.020992566, 0.07199179, 0.038263556, -0.09033238, -0.06814122, -0.0397831, -0.0003746094, -0.026337927, -0.09740283, -0.0069133043, -0.017268058, -0.035213143, 0.019128457, 0.098386124, -0.0075380574, 0.016660957, 0.090297595, 0.030506117, }, 
{0.019885803, 0.029641343, -0.03855552, 0.013621475, -0.027344458, -0.06618456, 0.047678858, 0.07400891, 0.025460202, 0.030286862, -0.11002641, 0.05322748, -0.0271383, 0.022163242, -0.05900839, 0.024908995, 0.03321166, -0.053782698, -0.022181872, 0.028670212, 0.04767188, -0.003874192, -0.022901753, 0.10218245, -0.08842092, -0.06350128, 0.0005039124, 0.030273413, -0.00862911, -0.056344755, 0.0942253, -0.0006671785, 0.0434543, 0.02511563, 0.042853687, 0.060821053, -0.058555514, -0.08887209, -0.016433012, -0.08323488, 0.031863388, -0.07725487, 0.08633525, -0.04586797, 0.10134288, -0.015337502, -0.07285058, -0.023760535, }, 
{-0.052081145, -0.005886711, 0.013603793, 0.018267531, -0.060396325, -0.035807353, -0.27240407, -0.121849, 0.053480994, -0.094559446, 0.04912318, -0.17026621, -0.16802669, -0.15326612, 0.020010281, 0.02545094, -0.06976422, -0.06580021, -0.07739317, 0.061431356, -0.09326018, 0.012201081, -0.047352586, -0.055062078, 0.028995095, -0.011714066, 0.07520666, -0.06308287, -0.036163997, -0.02969942, -0.07392449, -0.023364296, -0.04715626, -0.07468969, -0.14467704, -0.066840775, -0.026038745, 0.1352105, -0.06194923, -0.07532121, -0.0419112, 0.00069270196, 0.003234873, 0.0327028, -0.1015863, 0.010599667, -0.06298157, -0.11334548, }, 
{-0.008727144, -0.08415442, -0.012276728, -0.055569943, -0.09988937, -0.027750446, -0.12435883, -0.27655146, -0.05355079, -0.1837375, 0.040636327, -0.1635777, -0.33171037, -0.1822078, 0.1065851, -0.0141147515, 0.0729445, 0.025199702, -0.17021315, 0.024675881, -0.17443903, 0.06122241, -0.0258061, -0.053950194, 0.060396023, -0.033070423, -0.045269493, -0.009143585, -0.013100343, -0.029223876, -0.21478733, -0.010028239, -0.02367391, -0.13068487, -0.15945092, -0.071926065, -0.06255366, 0.016226463, 0.0097820265, 0.023214009, 0.029619535, 0.033307146, -0.08270192, 0.03900797, -0.036344465, -0.030178158, 0.01672832, -0.05794347, }, 
{0.010671685, -0.005445913, 0.051559545, 0.024267336, -0.047050744, 0.005757452, 0.010953848, -0.011284171, -0.097081184, -0.017403783, 0.0013661428, -0.07543687, 0.06253432, 0.048767775, -0.06603926, -0.027255138, -0.018674752, 0.008624283, 0.06547552, 0.014415074, -0.01418341, 0.031361282, -0.0032278209, 0.049114976, -0.029001176, -0.08381217, -0.004240301, -0.11008759, 0.009362627, -0.028264068, -0.010572221, 0.018944314, -0.090585925, 0.004364658, -0.013326596, 0.045749217, -0.0926443, -0.118953705, 0.019739307, -0.03634349, -0.053246524, -0.006020749, -0.008360161, -0.030282844, 0.027870173, 0.0011165211, 0.012513663, -0.0234666, }, 
{-0.05889876, 0.14963144, -0.01612593, 0.04502207, 0.061217997, 0.08850234, 0.0955526, -0.005324935, 0.013255364, -0.016866677, 0.013159278, 0.105703436, 0.14674973, -0.03459758, 0.026991535, -0.008732093, -0.02819154, 0.011625495, 0.062408645, -0.041999057, 0.12218005, -0.009474098, 0.038071025, 0.12750132, -0.030594712, 0.04048821, 0.037829388, -0.011066563, -0.052872498, 0.009974795, 0.082866885, -0.0021456627, -0.040805135, 0.1288085, 0.07269672, -0.1283969, 0.076735176, 0.045162655, 0.007973632, 0.0130388215, 0.03859661, 0.0026105181, -3.38245e-05, 0.010233362, -0.032313917, 0.023016194, -0.05332881, 0.010619687, }, 
{0.007945938, -0.030934513, 0.072052, 0.046969738, -0.002376436, -0.03715508, -0.010857148, -0.033426788, -0.09700321, 0.016926551, 0.022087855, -0.12766027, 0.033770483, 0.13237403, -0.050482273, -0.020889416, 0.012940519, -0.088152066, -0.04959637, 0.012844529, -0.04431521, -0.071057595, -0.026619134, -0.09161454, 0.0061118156, -0.1296719, -0.048914675, 0.0799497, 0.016662223, 0.025351048, -0.03187699, -0.0121286, -0.0022354114, 0.062993996, -0.05264066, 0.056801565, -0.016460061, 0.007721788, 0.061130192, -0.083511345, -0.090870075, -0.050012283, -0.11249543, 0.00044836217, -0.052302938, -0.076172374, 0.06467094, 0.056958824, }, 
{-0.004295099, 0.021006593, -0.08601477, -0.08207964, 0.045092363, -0.040809177, 0.12814341, 0.09441632, 0.009170141, 0.013137707, -0.0020835928, 0.1084211, 0.14155151, 0.0568334, 0.042155683, -0.012922696, -0.06383672, 0.010922139, 0.08736567, -0.081475526, 0.06668635, 0.013969605, -0.040884584, -0.0011415442, -0.027140254, -0.045594327, -0.050468694, -0.014873144, -0.09725126, 0.027737489, 0.0748491, 0.06745954, -0.06714388, 0.15757789, 0.11832822, -0.08151357, 0.06034044, -0.030120153, -0.029457614, 0.06286801, -0.04384988, -0.04046674, -0.07767058, 0.0026944797, -0.03714278, -0.019669292, -0.0057251994, 0.027266894, }, 
{0.02371843, 5.59561, -0.058571737, -0.04974706, 3.54401, 3.542145, 5.8150287, 5.470274, 0.085793205, 3.055231, 0.012249488, 5.877877, 5.8586698, 4.023847, 0.012622771, 0.010506598, 0.07538024, 0.001281842, 4.653504, 0.9526467, 5.320852, -0.024646303, 0.0061045703, 5.466583, 0.13318448, 0.04169702, -0.03869891, 0.042943, -0.016162744, 0.02830515, 5.6247463, 0.042490534, -0.010575375, 5.6433873, 5.4855933, -0.039831072, 0.06986948, -0.0737369, 0.008759246, 0.017525686, -0.116833724, -0.042473827, 7.561347, 0.014873785, 0.0067224847, -0.007817547, 0.03019209, -0.012718484, }, 
}

{0.02371843, 5.59561, -0.058571737, -0.04974706, 3.54401, 3.542145, 5.8150287, 5.470274, 0.085793205, 3.055231, 0.012249488, 5.877877, 5.8586698, 4.023847, 0.012622771, 0.010506598, 0.07538024, 0.001281842, 4.653504, 0.9526467, 5.320852, -0.024646303, 0.0061045703, 5.466583, 0.13318448, 0.04169702, -0.03869891, 0.042943, -0.016162744, 0.02830515, 5.6247463, 0.042490534, -0.010575375, 5.6433873, 5.4855933, -0.039831072, 0.06986948, -0.0737369, 0.008759246, 0.017525686, -0.116833724, -0.042473827, 7.561347, 0.014873785, 0.0067224847, -0.007817547, 0.03019209, -0.012718484, }

{{-0.0584835, 0.0070488118, 0.024968669, 0.04983507, 0.09343816, 0.06793731, -0.009714902, 0.037056115, 0.00219775, -0.0036916554, 0.010786788, -0.04830086, -0.03853066, 0.019977702, -0.023586517, 0.06238645, -0.050063577, 0.063945375, 0.061946094, -0.024012534, 0.031797778, 0.018035686, -0.06128616, 0.018511033, }, 
{-0.03525781, 0.003761964, 0.12178585, -0.03359165, 0.0782447, 0.09634952, -0.02357225, 0.0077296398, 0.08070446, 0.07099942, -0.026702655, -0.037102886, -0.042113144, 0.067352645, -0.0069475486, 0.03133745, 0.0070878193, -0.06055771, -0.12390463, -0.06476167, 0.04625736, -0.08535345, 0.06794237, -0.113974474, }, 
{0.0349992, 0.06935598, 0.015409383, 0.11045647, -0.0066657327, -0.033523362, -0.0019130977, 0.032321334, 0.032624025, 0.05012718, 0.045245092, 0.07981662, 0.029459437, -0.0053006094, 0.01874087, -0.11132344, 0.049126465, -0.0056066094, 0.030900111, 0.008292704, -0.0015306686, -0.0017745594, 0.080382966, -0.025860352, }, 
{-0.10931931, -0.062398817, 0.011400745, 0.0029167186, 0.01929616, -0.030203417, -0.09350644, 0.0069479956, 0.03967981, 0.029808512, -0.06281622, 0.011490887, 0.012439574, -0.030221654, 0.09529917, 0.083652735, -0.012711828, -0.10875709, 0.004013361, 0.034668077, 0.016816786, 0.09960611, 0.039382614, -0.015640352, }, 
{0.52635896, 0.38497362, 0.32993728, 0.039168194, 0.38713413, 0.3388202, -0.012519184, 0.002966882, 0.41058013, 0.40623707, -0.0655134, -0.02391902, -0.00203356, 0.32979894, -0.031282067, 0.36579373, 0.28527176, -0.05133296, 0.0140506895, -0.010497441, 0.35594806, -0.12632316, 0.3319692, -0.042875733, }, 
{0.6755069, 0.5632796, 0.4829152, 0.040311, 0.47835478, 0.469449, -0.01859541, -0.0046121026, 0.5326147, 0.43777364, -0.092765935, -0.056059588, 0.021542277, 0.4885935, -0.010157513, 0.4441806, 0.5150972, -0.021025985, 0.01701654, -0.04351017, 0.45085317, 0.0039621023, 0.58485276, -0.067030855, }, 
{-0.049745232, 0.066652216, 0.08637642, -0.068293884, 0.05751277, 0.074152514, 0.040187616, 0.004339539, 0.11813745, 0.087415524, -0.06492631, -0.021808045, -0.01616453, 0.12481412, -0.047704257, 0.12294062, 0.13800359, -0.0068302737, -0.030538203, -0.013482592, 0.20554753, 0.11610625, 0.14179422, 0.04020034, }, 
{0.6645891, 0.2232354, 0.19229594, 0.009435638, 0.2591913, 0.14371343, -0.100461595, -0.059506185, 0.28233728, 0.20634232, -0.10003986, 0.031113124, 0.023470076, 0.15227762, -0.10660631, 0.14688775, 0.27803263, -0.014147291, 0.009179335, -0.07624241, 0.14505294, 0.039108228, 0.24206592, -0.041678693, }, 
{-0.1293917, -0.018233223, -0.060814947, -0.039045237, -0.018744085, -0.041410964, -0.03728308, -0.012965855, -0.019107718, 0.035040803, -0.11547162, -0.011567219, 0.08208389, 0.03902032, 0.09588881, 0.036772545, 0.03714655, -0.022888104, -0.03625166, -0.06607296, 0.08087339, -0.04555429, 0.0075956383, -0.017766738, }, 
{0.46948436, 0.45788705, 0.45380926, -0.04987984, 0.38638738, 0.4226855, 0.03733927, -0.019213349, 0.5622381, 0.4714426, 0.03458776, -0.026032964, -0.022148913, 0.46463126, -0.032666877, 0.502439, 0.50509566, -0.045541752, 0.007886696, 0.0015314918, 0.4510078, -0.0050727464, 0.4641056, -0.012562414, }, 
{-0.053972233, 0.07559011, 0.011959808, -0.054473843, 0.051552486, -0.10480155, -0.05685267, -0.07774424, -0.07036048, -0.010300152, -0.06142518, -0.05204531, 0.022446243, -0.010768496, 0.05665638, 0.03627128, -0.045666683, -0.027460268, 0.010152541, -0.043195672, -0.046188865, 0.017589979, 0.0037941835, 0.0007030315, }, 
{0.12894145, 0.3108957, 0.16139211, -0.06365075, 0.21496555, 0.22031601, -0.060568713, -0.10278806, 0.23742044, 0.24820499, -0.082000926, -0.056793213, 0.032094833, 0.1912913, -0.0026194172, 0.219705, 0.15811108, 0.0006702743, -0.029023854, 0.021364663, 0.25399038, -0.011166443, 0.355625, -0.034230623, }, 
{0.39250934, 0.45497856, 0.37064895, -0.048607577, 0.43435076, 0.3865792, 0.00065702037, -0.026481433, 0.44579104, 0.36365718, -0.06794658, 0.019970873, 0.011598499, 0.38040835, -0.030965786, 0.3969496, 0.41836768, -0.11126238, -0.04522658, 0.029331567, 0.36763862, 0.033273436, 0.3850893, 0.044743016, }, 
{0.6841719, 0.56310517, 0.56014544, -0.040468067, 0.5705778, 0.62292933, -0.036798872, -0.07178907, 0.62009597, 0.6335834, -0.046769332, -0.03159206, -0.031691592, 0.665992, 0.02217611, 0.56684595, 0.53973234, -5.275435e-05, -0.06274144, -0.0689512, 0.60447496, 0.04189908, 0.5848747, 0.02873453, }, 
{0.023933548, 0.08723695, -0.017942527, -0.0033637115, 0.038666796, -0.050474893, -0.039696686, 0.046925377, -0.01264101, 0.018239541, -0.015568532, -0.015025741, 0.06995006, 0.056285944, -0.017577609, -0.03771707, 0.043915533, -0.0023800235, 0.026641577, 0.032928742, 0.020626552, 0.02709634, 0.03215202, -0.02549299, }, 
{-0.015952436, 0.0013665198, 0.03136621, -0.014895364, -0.0009895808, 0.080716714, -0.03596287, 0.02062028, 0.009555308, 0.08731329, -0.034934267, -0.021261156, -0.03457111, 0.018628886, -0.0032524725, 0.032952316, 0.063684985, -0.009093854, 0.039373785, 0.0065299864, -0.022791212, 0.037914433, 0.08666413, 0.07626998, }, 
{-0.00035914636, 0.020558387, -0.009383543, -0.10413052, 0.049717806, -0.041594382, -0.01400504, -0.01899646, -0.04169717, 0.08120566, 0.020400455, -0.0060201273, -0.14354081, 0.082360856, 0.0071917507, -0.16839437, -0.07347803, 0.010455904, -0.0038045296, 0.0386112, -0.108985685, 0.034971226, -0.050508197, -0.071530364, }, 
{-0.008045248, -0.014144826, -0.011678045, 0.029969076, 0.020670062, -0.06317883, 0.06892555, 0.06755831, -0.017105121, -0.089206055, -0.0149855185, 0.0120665515, -0.044887297, 0.05202652, 0.001027847, -0.06683391, 0.034957338, 0.07542228, 0.019153105, 0.008227256, 0.03192495, 0.0459187, -0.027198678, 0.030669853, }, 
{0.35935184, 0.08092455, 0.016322589, -0.003676757, 0.09665843, 0.16940852, -0.043486137, -0.05627419, 0.025728641, 0.08105402, 0.063639015, 0.030127108, 0.0036633078, 0.012365243, -0.11610546, -0.0075710206, 0.06420143, -0.028815545, -0.032707587, -0.07161972, 0.07754783, -0.08491979, 0.050639186, 0.024608506, }, 
{-0.4640577, -0.47222707, -0.61012036, -0.03463405, -0.4386515, -0.47759044, 0.018522536, -0.04572648, -0.5595915, -0.5129603, 0.009889452, -0.13586554, -0.032717384, -0.4813719, -0.015321191, -0.50779444, -0.45103005, 0.0038675857, -0.028043536, -0.06642144, -0.53785914, -0.0046099355, -0.5123987, -0.06006665, }, 
{-0.18480544, -0.051783863, -0.097592816, -0.055007253, 0.039886896, -0.07599876, -0.028422028, -0.06292834, 0.06334341, -0.003665746, 0.067913234, -0.021457402, 0.008916956, -0.07468313, -0.01219852, -0.0712015, 0.07073159, 0.023385487, -0.014285696, -0.04121736, 0.0049226577, -0.04365437, -0.039187223, -0.008875749, }, 
{0.0024698114, 0.030359132, 0.013143621, 0.03104352, 0.026150787, -0.07526421, -0.020872198, -0.0061280653, -0.061959248, -0.007328869, -0.025825758, -0.07954036, 0.042010184, 0.06445857, 0.050575253, -0.007550998, -0.13456741, 0.055585023, -0.0033068862, -0.06545725, -0.027925977, -0.017133225, 0.0010209332, -0.03514245, }, 
{0.020952962, 0.11825582, -0.005495876, 0.031801794, 0.050486602, -0.020117566, 0.01559971, 0.018500445, 0.011752413, -0.023064433, 0.011616455, -0.0005428886, 0.061689287, -0.07859757, 0.06534008, -0.033116728, -0.061959036, 0.018724605, -0.018220147, -0.031465847, -0.032393727, 0.009656587, 0.025470804, -0.07840572, }, 
{-0.18373013, 0.006532491, -0.02355184, 0.0033630023, -0.02900379, 0.028451798, -0.07306815, -0.13825879, -0.085253805, 0.05894915, 0.017931947, -0.04936702, -0.022783868, 0.0774784, -0.0011283011, 0.04328395, 0.016079457, 0.0046231486, 0.053344097, -0.10493438, -0.05032261, -0.009218734, -0.009018332, -0.015650136, }, 
{0.033086568, 0.037723023, 0.029914109, -0.035374638, -0.06396028, 0.0015561347, -0.06520238, 0.06149831, 0.050209325, 0.017946562, 0.064674586, 0.031605218, 0.0329092, -0.068828724, -0.05202031, 0.0745238, -0.028757496, -0.12261778, 0.03724418, 0.021330599, 0.042423457, -0.017330801, 0.05128717, 0.025875239, }, 
{0.041178733, 0.013878116, -0.031489003, -0.036507554, 0.08865588, -0.06820184, 0.0007815626, -0.04256276, 0.023853973, -0.051293503, -0.058245637, 0.04027851, -0.09265932, 0.034120407, -0.010709608, -0.0033435372, -0.027187973, -0.008355844, 0.050731767, 0.012375719, -0.049119763, -0.02481123, -0.0020328097, 0.06738624, }, 
{-0.011417128, 0.03360207, -0.0009090064, 0.04603535, -0.0638576, -0.018818926, 0.062618196, 0.006247536, 0.05019784, -0.07488876, -0.080512635, -0.014617755, -0.025061905, 0.04318392, -0.02451306, -0.006809098, -0.08340364, 0.0030652971, -0.08116259, -0.030645672, -0.0548066, -0.020376027, -0.04653946, -0.105296925, }, 
{0.04744681, 0.024454657, -0.07775112, 0.0047351927, 0.03156216, -0.03458623, 0.06375415, 0.04563322, -0.030169247, -0.04976685, -0.015790198, 0.022623783, -0.015843421, -0.034152634, 0.0610446, -0.057596494, 0.06678387, 0.015520366, -0.044382613, -0.0067993305, 0.08332216, -0.072802655, 0.048323628, -0.08103796, }, 
{-0.06206217, -0.012199639, 0.009054715, 0.007876643, 0.052274473, -0.012991718, -0.017346675, -0.00087280356, -0.023649177, 0.030972311, 0.0020337163, 0.030132815, 0.038199335, 0.017029952, -0.03372294, 0.081119165, -0.022544215, -0.00076179224, 0.088701926, -0.017331174, -0.016080802, 0.06276553, 0.056346543, -0.060040887, }, 
{0.03724644, 0.018818948, 0.05971054, 0.025621524, 0.053893983, -0.029040381, -0.037493717, -0.00083378115, 0.10022122, 0.0025874746, -0.08374584, -0.018524284, 0.066048644, 0.006678928, 0.020675892, -0.020495612, -0.06492229, -0.0030639253, 0.024834273, -0.017904026, -0.012734017, -0.027067238, -0.010828756, -0.059958946, }, 
{0.23733431, 0.10916766, 0.16882728, -0.059330255, 0.18728203, 0.14304808, -0.049068436, 0.0038588818, 0.10564942, 0.11043464, -0.02702281, -0.09770826, -0.018374618, 0.17127964, -0.014663264, 0.17153428, 0.14807379, -0.0037001986, -0.15347497, -0.018966801, 0.21990855, 0.03416365, 0.09998085, -0.08211637, }, 
{-0.110990345, 0.008798561, 0.045399066, 0.043581143, -0.012491975, 0.04985653, 0.03864078, 0.03580147, 0.0096434895, -0.037443552, -0.008865434, 0.042054847, 0.05542435, -0.11148479, 0.098476924, 0.004843625, -0.028821474, 0.007346127, -0.00074684445, -0.035454918, -0.099804156, 0.004795891, 0.039670866, 0.0006160508, }, 
{-0.06383925, 0.077486895, 0.014554071, 0.035640806, -0.064605944, -0.039553564, 0.021194162, 0.058980115, 0.09871818, -0.034461446, -0.022143997, 0.030888503, 0.0001761178, -0.053720362, 0.02157838, 0.03734485, 0.01304127, 0.041328546, 0.07617904, -0.004627248, 0.07835974, 0.09189209, 0.051615078, -0.004034556, }, 
{-0.08625246, 0.018669408, 0.11730191, -0.04990152, 0.13434425, 0.06847309, -0.11285054, 0.007331744, 0.06666602, 0.089097075, -0.07495917, -0.031184232, -0.07923674, 0.13368365, 0.019804573, 0.096554525, 0.0932812, -0.022462524, 0.015269927, -0.07505323, 0.04049104, -0.006848256, 0.11517611, -0.0559822, }, 
{0.19330402, 0.097228765, 0.0430134, -0.060223766, 0.08418945, -0.037134685, 0.1306832, -0.050079335, -0.02604469, 0.010990483, -0.049503326, -0.08429205, 0.012279454, 0.0678236, -0.03732681, 0.1234325, -0.013667829, -0.025983343, -0.028458836, 0.06929694, 0.070867844, -0.021885455, 0.026524035, 0.044340692, }, 
{-0.027590254, -0.037596766, 0.012275353, -0.0068771327, -0.11945994, 0.06354811, -0.030884365, 0.007387478, 0.06359933, -0.017995324, 0.045701817, 0.002693077, 0.010660685, -0.024154698, -0.02461222, -0.027760928, 0.032396004, -0.017759623, -0.032062408, -0.059445698, -0.0073046214, -0.015685331, 0.024643961, 0.15025298, }, 
{-0.017156767, 0.05130879, -0.051118314, 0.030232457, 0.07193907, 0.0654986, 0.092437275, 0.061360728, -0.025435245, -0.024976945, -0.051193327, -0.036042783, 0.076859295, -0.006350752, 0.04958531, 0.10516911, 0.029962242, -0.014234215, 0.050040472, -0.005097741, 0.10850193, -0.04778943, -0.045028593, 0.07473601, }, 
{0.0042184503, -0.0115019595, 0.06209103, 0.053824503, 0.028635606, 0.027164618, 0.006519325, -0.0072856317, -0.011004399, -0.10733718, -0.055194523, 0.06557148, 0.06609621, -0.030148065, -0.005019632, -0.016907433, 0.020681234, -0.008117592, -0.0062304055, -0.004643844, -0.0142458, 0.06552919, -0.009416932, 0.02804303, }, 
{0.04478179, 0.007390048, -0.04197171, -0.026186734, 0.0009166372, -0.09188064, -0.030514225, 0.052557625, -0.013667454, 0.013463904, -0.0066418387, 0.05141778, -0.008322955, -0.032168895, -0.10456767, 0.005991901, 0.0045182966, -0.044924837, -0.11085458, 0.007380189, -0.030206898, -0.026200349, -0.040157344, -0.03206674, }, 
{0.052543566, 0.04850718, -0.035049736, 0.0767647, -0.05888279, -0.05150663, 0.005470998, -0.08556158, 0.03964773, -0.004558003, 0.007394787, 0.00274399, -0.021277063, -0.02665279, -0.022271004, -0.098281436, 0.016946273, 0.025335116, 0.006365941, -0.048207514, -0.066899545, -0.036131945, 0.042159002, -0.0375518, }, 
{0.0716305, 0.054027226, -0.060323, 0.104411505, 0.016251028, -0.05492006, 0.07643474, -0.05387289, 0.01908113, -0.048013, 0.03726562, 0.040220134, -0.017031794, 0.050541848, 0.06532535, -0.044966396, -0.06265801, -0.019542048, 0.037466597, -0.028421625, 0.0024424985, -0.061710536, -0.008357743, -0.05215467, }, 
{-0.040935382, 0.039432544, 0.06128817, -0.12504882, 0.03493324, 0.06423579, 0.008043442, -0.13490124, 0.08562203, -0.017333578, -0.027504181, 0.0058222376, -0.048296485, -0.07595239, 0.022094171, -0.03886508, 0.069445774, 0.005010915, 0.0002911545, -0.0071239765, 0.041610427, 0.050205626, -0.09656407, -0.021036023, }, 
{-0.39163873, -0.27078286, -0.3476001, -0.06934711, -0.35854223, -0.33874366, -0.049663078, -0.0124115255, -0.3631448, -0.3123323, 0.03128737, 0.017451623, -0.050076336, -0.3366046, -0.08492426, -0.29848972, -0.33329114, -0.12827028, -0.057810683, 0.0019300395, -0.35565323, 0.0226741, -0.31614524, 0.0018862592, }, 
{-0.046601947, 0.045180976, 0.07133402, 0.0020905181, 0.028936252, 0.08167649, -0.14611918, -0.07749591, -0.025052328, 0.026189392, -0.011768576, -0.026060913, -0.050644357, -0.005210081, -0.051306654, -0.00924909, -0.06161451, -0.0806558, 0.028064502, 0.0683864, 0.022151647, -0.016905947, -0.047209408, -0.024992418, }, 
{0.01664706, 0.004853928, -0.005411622, -0.012041739, 0.02133958, 0.092099145, 0.008590624, 0.079836786, 0.0001817837, 0.0046141758, 0.023787586, 0.018354228, -0.04333617, 0.015527122, 0.054764237, -0.01870894, -0.0040600896, 0.00457043, 0.014088901, 0.017914798, 0.006717635, 0.017359726, -0.010942092, 0.0044536185, }, 
{0.057090748, 0.08427612, 0.07674391, -0.02415211, 0.017647017, 0.0008847112, 0.07934191, 0.01986685, -0.0037475147, -0.034798257, -0.09257901, 0.01952964, 0.066873305, -0.07906524, 0.014567353, 0.0034943724, -0.073758416, -0.062240638, 0.016475607, -0.031588525, 0.022053069, -0.005053872, 0.013021675, 0.022314657, }, 
{-0.034073234, -0.0038607214, -0.052185453, 0.0057299244, 0.0184081, 0.023952411, -0.019701531, 0.11311563, 0.0038651307, 0.065136455, -0.008728432, 0.072925925, -0.108971216, -0.041989487, 0.06785048, -0.016961634, 0.038992815, 0.033998303, -0.058586188, -0.041143913, -0.07046343, -0.044066995, -0.049968656, -0.008980042, }, 
{0.0006473534, 0.045878682, 0.008722935, 0.058920175, 0.033899564, 0.016560523, 0.019708203, 0.028529583, 0.028208379, 0.017078009, 0.060062952, -0.0048112827, -0.05913033, -0.09689748, 0.00493075, -0.039034214, -0.0035805095, -0.023773937, -0.089612804, -0.05093342, -0.038531367, 0.008145641, -0.01714576, 0.003057185, }, 
}

{0.0006473534, 0.045878682, 0.008722935, 0.058920175, 0.033899564, 0.016560523, 0.019708203, 0.028529583, 0.028208379, 0.017078009, 0.060062952, -0.0048112827, -0.05913033, -0.09689748, 0.00493075, -0.039034214, -0.0035805095, -0.023773937, -0.089612804, -0.05093342, -0.038531367, 0.008145641, -0.01714576, 0.003057185, }

{{-1.2334738, -1.3055421, 0.0010069871, -1.2941602, -1.3025774, -1.3107421, 0.008944133, 0.03789966, 0.041785378, 0.01453412, -0.09015907, -0.031465106, }, 
{0.161892, 0.17350714, -0.035889015, 0.24671903, 0.26060984, 0.21119267, -0.13254151, 0.03514724, -0.03324799, 0.028669426, -0.030541824, 0.026520485, }, 
{0.2193677, 0.13472769, -0.0083438335, 0.15685737, 0.23289485, 0.15331069, -0.05684286, 0.050066523, 0.039200276, 0.0012548892, 0.06748095, -0.10017768, }, 
{0.011371274, 0.0062096235, 0.056905366, -0.038659353, -0.014343952, -0.033508126, -0.09944813, 0.0049146325, 0.057761278, 0.048748255, 0.005956493, 0.038962487, }, 
{0.17812638, 0.18790708, -0.0006309729, 0.1071222, 0.21419019, 0.17456518, -0.06077793, -0.0011207601, -0.054581113, -0.034189686, -0.014072506, -0.04535518, }, 
{0.10444231, 0.15471044, -0.01911668, 0.13669117, 0.081948474, 0.25608703, 0.054047767, -0.043535087, -0.059002627, 0.08655554, -0.09642534, -0.073211625, }, 
{0.036093198, 0.090016164, -0.027669119, 0.037890114, -0.035526514, -0.044704273, -0.016828177, -0.031918667, -0.0050099357, -0.015383762, 0.04536631, 0.032309204, }, 
{0.01437603, 0.0376736, -0.023691949, -0.062056474, -0.11757906, -0.05512871, 0.0072152712, 0.05290649, -0.048003238, 0.07395967, 0.04634598, -0.041053742, }, 
{0.26318008, 0.11332201, 0.040077344, 0.18711342, 0.2590512, 0.22621162, -0.044308316, -0.04795254, -0.008516261, -0.070659705, -0.014914369, 0.05556397, }, 
{0.23239776, 0.074527755, -0.039480418, 0.16396695, 0.14413601, 0.18476942, -0.024464091, 0.02135318, 0.042568237, -0.09476373, -0.015720222, 0.04240642, }, 
{-0.01242569, 0.0018008766, 0.03377655, -0.009562282, -0.056562435, -0.03527465, -0.031111065, 0.013050556, -0.057320107, 0.054637417, -0.05206719, -0.100329734, }, 
{-0.048384484, 0.030107085, 0.018700367, 0.044747107, 0.114714935, -0.028970236, -0.0351993, 0.040803924, -0.11872971, 0.02417356, 0.029885953, 0.038098764, }, 
{0.0528152, -0.08074188, -0.0038611933, 0.0023517674, 0.061871022, -0.06254704, 0.06177933, -0.00990967, 0.026288003, -0.022618253, -0.06358703, -0.07865909, }, 
{0.22766954, 0.21584408, -0.05943337, 0.22121625, 0.14198402, 0.1500095, 0.00018749214, -0.099537805, -0.022209283, 0.050914273, -0.05476808, -0.007831383, }, 
{-0.0505706, -0.0677791, -0.045450926, -0.0014325351, -0.04692405, 0.046712667, 0.011125468, 0.051142074, -0.054103073, -0.09151813, 0.02255501, -0.018721538, }, 
{0.179396, 0.18177342, 0.016017096, 0.17405058, 0.21742935, 0.20100321, -0.07609288, 0.009903572, -0.09601653, -0.023560952, 0.051019143, -0.08519683, }, 
{0.20338148, 0.24306309, -0.04391622, 0.18184264, 0.14814977, 0.21607065, 0.034617018, 0.0034841448, 0.036204055, -0.10472694, 0.06114579, 0.04385967, }, 
{-0.056108903, 0.028026035, -0.03930561, 0.03000101, 0.06333291, 0.030780708, -0.016497849, -0.044858217, -0.11066659, -0.05537159, -0.031897645, -0.012150192, }, 
{-0.013713467, -0.049217615, 0.11478307, -0.004223859, 0.015423813, -0.0073777433, -0.015283664, 0.011099472, -0.093628086, -0.03192709, -0.024079878, -0.016383315, }, 
{-0.031671014, 0.049164828, -0.015173259, 0.034224037, -0.047922753, 0.013737116, -0.005258225, 0.02016811, -0.093156576, 0.040404037, 0.02915343, 0.0011621463, }, 
{0.15020244, 0.13202517, 0.05520569, 0.20393184, 0.18569982, 0.1233999, -0.075753294, -0.019287987, 0.0656934, -0.043500826, 0.007771315, -0.16058719, }, 
{-0.06453518, -0.010341065, -0.046503067, 0.09667884, -0.048106857, -0.05336787, 0.032475885, 0.002217637, -0.0037761068, 0.028107062, -0.009070323, -0.07156072, }, 
{0.22156474, 0.29661733, -0.01144062, 0.19376852, 0.123110294, 0.25758165, -0.07838196, -0.07920531, 0.0077881813, 0.048210643, -0.07078425, -0.09374507, }, 
{-0.06344112, -0.009952633, -0.11025069, 0.005055147, -0.053300697, -0.045994267, -0.040987775, -0.0062724664, -0.014263091, -0.04457179, 0.022521919, 0.15268764, }, 
}

{-0.06344112, -0.009952633, -0.11025069, 0.005055147, -0.053300697, -0.045994267, -0.040987775, -0.0062724664, -0.014263091, -0.04457179, 0.022521919, 0.15268764, }

{{-0.06214903, -0.016622672, -0.019191502, -0.015448651, 0.024900572, 0.25346154, }, 
{-0.0030345402, 0.014282244, 0.0506342, 0.02022651, -0.0440835, 0.24998595, }, 
{-0.0083360635, -0.066737674, -0.01513566, 0.036178574, -0.015651582, 0.0037399034, }, 
{-0.12364771, 0.035003304, -0.045675386, -0.09273523, -0.0030482956, 0.2883645, }, 
{0.05065713, 0.07034579, -0.059170928, -0.07787336, -0.05319316, 0.2565841, }, 
{-0.02369992, -0.12040841, 0.0012571064, 0.036739964, -0.010997145, 0.28930676, }, 
{-0.031173527, 0.017730815, -0.09017626, -0.07659924, -0.0038212296, -0.014422609, }, 
{-0.030928388, 0.0030899302, -0.049354456, 0.014160203, -0.04952357, -0.020430842, }, 
{-0.0026721188, 0.019012457, 0.020940466, 0.08834274, 0.005212912, 0.038315155, }, 
{0.030979184, 0.00359022, -0.0035675017, 0.04623903, -0.038261533, 0.006865051, }, 
{0.11527524, -0.04599939, -0.025283491, -0.060545214, -0.009970329, -0.06386498, }, 
{-0.009378488, 0.046848513, -0.13085216, 0.021816527, -0.037803464, 0.004364822, }, 
}

{-0.009378488, 0.046848513, -0.13085216, 0.021816527, -0.037803464, 0.004364822, }

{{0.10201188, }, 
{0.0141641665, }, 
{0.006191456, }, 
{-0.0900901, }, 
{-0.100063585, }, 
{0.3055982, }, 
}

{0.3055982, }

