{{0.42303327, 0.3722478, -0.6452624, -0.32192704, -0.39614347, 1.0835035, 0.5770942, 0.099244766, -0.49800256, 0.23559982, 0.091802515, 0.12195586, }, 
{1.0557193, 0.13206549, -1.1617504, -0.377514, 0.050680388, -0.5953638, -1.3076199, -1.1586249, -0.3087867, -0.5319049, 0.130817, -0.8385309, }, 
{0.5503621, 1.0195876, -0.16273835, -0.8621905, 1.2036875, -0.91351795, -0.6873324, -0.7103967, -0.14403348, -0.15630181, -0.29350597, -1.0282694, }, 
{1.5320327, 0.9630499, -1.3504432, -1.5723128, 1.1461577, -0.61951256, -0.92816687, -1.4260576, -1.5506308, -0.8360058, -0.8292057, -0.80424356, }, 
{0.8848252, 0.5220551, -1.0845298, -0.96261567, 0.78448623, -0.1583208, -0.7617261, -0.9232132, -0.92818856, -0.99683195, -1.304095, -1.195416, }, 
{1.8001233, 1.3736763, -1.7920716, -1.5027025, 0.6082872, -0.77313167, -0.6727753, -1.5608854, -0.96654654, -1.468929, -1.1974196, -1.072723, }, 
{0.5191594, -0.1619295, -0.05054033, 0.44343567, -0.31235024, 0.34329122, -0.20457374, 0.25286317, 0.08928229, 0.49469548, -0.21004577, -0.019953672, }, 
}

{0.5191594, -0.1619295, -0.05054033, 0.44343567, -0.31235024, 0.34329122, -0.20457374, 0.25286317, 0.08928229, 0.49469548, -0.21004577, -0.019953672, }

{{1.0164868, -1.4643047, -1.3242282, 0.65860665, 1.085649, 0.79591733, }, 
{0.70664763, -0.8531245, -0.5679016, 0.46779576, 0.10046038, 0.3700159, }, 
{-1.6969966, 1.6271036, 1.544156, -0.8136867, -1.1863235, -1.9078262, }, 
{0.015206895, 0.8926447, 0.97239953, -0.8620019, -0.764856, -0.14086278, }, 
{0.5076194, -0.17489468, -0.6802401, 0.7999748, 0.08394978, 0.07549929, }, 
{-0.25311947, 1.0790864, 0.42996186, -1.1702664, -0.062002853, -0.025186384, }, 
{-0.83967173, 1.6398203, 1.3202065, -1.201425, -1.2799865, -1.1925758, }, 
{-0.81873214, 0.68518466, 0.91321105, -0.21230058, -1.2419318, -0.30594432, }, 
{-0.37341428, 0.76202774, 0.9598809, -0.38784593, -0.3646277, -0.16278477, }, 
{-0.91924375, 0.6445111, 0.6325224, -0.21527873, -0.31699508, -0.1656784, }, 
{-0.47509608, 0.42580262, 0.24710923, -0.7918598, -0.8387687, -0.56827575, }, 
{-1.0158856, 0.7840479, 1.2430325, -0.41732246, -1.1708336, -1.2102638, }, 
}

{-1.0158856, 0.7840479, 1.2430325, -0.41732246, -1.1708336, -1.2102638, }

{{1.285138, -0.44265428, -0.93308604, }, 
{-1.2813816, 0.96911347, 0.088143595, }, 
{-0.68314683, 0.6202984, 1.1726638, }, 
{0.69295055, -1.5338116, -1.245608, }, 
{0.76915026, -0.15557632, -1.2282778, }, 
{0.48606613, -1.2680894, -0.8808542, }, 
}

{0.48606613, -1.2680894, -0.8808542, }

{{-1.3210346, }, 
{1.172687, }, 
{1.5506091, }, 
}

{1.5506091, }

