{[[[-0.00401282]]

 [[ 0.4033855 ]]], [[[0.4789799]]

 [[0.732079 ]]], }

{0.5592655, }

{{0.14501922, 0.19981368, -0.06846322, 0.5168104, 0.39784962, -0.30472788, 0.30773515, -0.5768413, 0.08707059, -0.13440967, 0.069703124, 0.29857647, 0.05267576, -0.63865334, -0.0014270978, 0.3546969, }, 
{0.13023664, -0.24381076, -0.5706056, 0.33825698, 0.29865074, 0.1774472, 0.5933363, 0.17495711, 0.32575667, -0.26735058, -0.38297796, -0.25751895, -0.54769486, 0.24970368, -0.42972782, -0.65771145, }, 
{0.2229812, 0.33123395, 0.46364582, 0.38442448, -0.23171937, -0.58093727, 0.1743044, -0.08373903, 0.47244844, 0.076542534, -0.33017153, -0.2507538, 0.5464252, 0.107390925, 0.19864139, 0.95975155, }, 
{-0.51446414, 0.27989388, -0.013651309, -0.38860172, -0.024743611, 0.25865623, 0.26284933, 0.4670488, 0.16194218, -0.38715127, -0.260286, 0.24231164, 0.50657046, 0.5000341, -0.0046381005, 0.016090969, }, 
{-0.042845737, -0.12147756, -0.19374272, -0.047901254, -0.32821134, -0.0040414445, 0.17194961, 0.16720377, -0.3560255, 0.29403296, -0.3398842, 0.5775172, -0.26557726, -0.098142266, -0.15697399, -0.037588026, }, 
{0.066053726, -0.21634224, -0.16879195, 0.47788796, 0.24705434, -0.34473488, -0.25268593, -0.30217063, -0.6161531, 0.47066587, -0.56928796, 0.0065490105, -0.38935456, 0.6012074, 0.38266256, -0.7257662, }, 
{0.32538578, 0.03135854, -0.10443129, 0.31418416, -0.11236382, -0.2574747, 0.2780545, 0.26183543, -0.90883625, 0.23266782, 0.3015415, 0.36765337, 0.018074306, -0.5398941, -0.1385767, -0.029729089, }, 
{0.46670717, 0.17705432, 0.39288682, 0.100972146, 0.019752415, -0.22458369, -0.15190239, 0.053995695, -0.21529253, -0.4612304, -0.5451831, -0.13555181, -0.8144831, 0.072167985, -0.37226367, 0.1202508, }, 
{-0.34210965, 0.52385384, -0.003694284, -0.0044577117, -0.16554941, 0.07393521, -0.14484514, 0.33912495, 0.20544012, -0.029521517, -0.27130878, -0.28606746, -0.21916851, -0.032743283, -0.27843964, -0.1820315, }, 
{-0.05276494, -0.20304683, 0.73151606, 0.3647127, 0.2868065, 0.13932152, -0.24165261, -0.9564438, 0.7373102, 0.2822406, 0.50083256, 0.218547, -0.25565073, 0.09392238, -0.42988113, 0.18086977, }, 
{0.31094167, 0.13789304, -0.8208473, 0.08897125, -0.29684213, -0.25254118, 0.21989255, -0.9137788, -0.09207405, 0.12809913, 0.20356253, 0.23199864, -0.085983925, -0.3692632, 0.12845773, -0.546816, }, 
{-0.14116201, -0.12819974, 0.20921704, -0.09258616, 0.030117441, -0.32810318, -0.21539526, 0.42449704, -0.48901293, 0.25451753, 0.49826157, 0.60067815, -0.3732935, 0.60636634, 0.09643779, -0.2575322, }, 
{0.2357254, 0.18846203, 0.08881753, -0.5665229, -0.47255746, 0.81530076, 0.18366069, -0.5588874, -0.5049815, -0.5612348, 0.2952423, -0.0042191567, -0.03521554, -0.47041786, 0.16499473, -0.65404046, }, 
{0.41634887, 0.7719325, -1.0589325, 0.41864637, 0.3022629, 0.27369145, 0.36970553, 0.20723227, 0.39340407, 0.2644989, -0.25768787, -0.31068304, 0.733946, -0.5808319, 0.30848372, 1.0426478, }, 
{-0.21386589, 0.020294921, 0.124743946, -0.40752813, 0.1455783, -0.8702471, -0.16588236, -0.33835787, 0.43687674, -0.36477852, -0.3162551, -0.8652944, -1.1253914, -0.2994966, -0.32934982, -1.6839012, }, 
}

{0.20707215, 0.060458925, -0.2759342, -0.4286736, -0.46750206, -0.41955742, 0.36204028, 0.20698239, 2.8837154, 0.4431724, -0.30958262, -0.8318183, -0.34304002, 0.5736564, -0.09957735, -1.0803849, }

{{0.44862756, 0.094038434, 0.024671435, 0.09123254, -0.34786052, -0.3719514, -0.08501966, 0.05337427, }, 
{0.4027167, 0.10572459, -0.26286167, -0.21661334, 0.24723674, -0.056077927, 0.3815219, 0.52878636, }, 
{0.15455836, 0.7537224, -0.62632465, 0.42490697, 1.362461, 0.49753037, 0.7577751, 1.129472, }, 
{0.27746218, 0.19955309, 0.080151975, -0.22104746, 0.10289845, 0.1053875, -0.28562832, -0.004732815, }, 
{0.354774, 0.19825204, -0.25458053, 0.25974917, 0.16314776, -0.44751212, -0.8115588, 0.2774052, }, 
{0.24447371, 1.2892325, -0.538212, 0.22145581, -0.03303698, 1.4171104, -0.7091189, 0.64185375, }, 
{0.39759865, 0.24499196, -0.75966954, -0.18389158, -0.17290664, -0.36692932, 0.3031842, 0.45119658, }, 
{0.3640085, 1.2031214, 0.4432048, 0.041396447, 0.044426873, -0.16108544, 0.3695875, 0.80150354, }, 
{-1.2586154, -0.827268, 0.22139892, 0.3257365, -0.21190691, 0.008773428, 1.7180052, -0.5464861, }, 
{0.28813624, 0.11273052, -0.0017957243, -0.4334193, 0.08595109, 0.40675327, -1.0205207, 0.08923968, }, 
{0.49721956, 0.16226214, 0.14040202, 0.2361187, 0.46499553, 0.027560111, -0.68888897, 0.7092187, }, 
{0.13748108, -0.36522302, -0.44366595, -0.05791917, -0.48776644, 0.5585601, -0.2880809, -0.15108234, }, 
{-0.031688895, 0.15258978, 0.15419117, -0.42697412, 0.8388173, 0.6136893, 0.38485223, 0.43840542, }, 
{-0.030619185, 0.15003128, 0.21327902, 0.17079903, -0.10697891, -1.9601015, 0.08958351, 0.4116137, }, 
{-0.27643627, -0.2699044, 0.07587617, -0.47780338, -0.2992006, 0.17264464, 0.2532456, 0.06025416, }, 
{0.116244584, 0.8310743, -0.08286863, 0.28017086, 1.1802106, 1.3115892, -0.35409346, 0.44952047, }, 
}

{-0.2946089, -0.08613065, -0.4794563, 0.116153456, 0.092000395, -0.53223336, 1.1537623, -0.1975219, }

{{0.38962516, -0.081099994, 0.32078886, 0.54588896, }, 
{0.34159485, 0.75011784, 0.2872772, -0.53474784, }, 
{-1.5599003, -1.4157485, -1.2286053, 0.5847154, }, 
{-0.9984951, 0.34311673, -0.1244699, -0.15688512, }, 
{1.2540085, 1.266498, 0.23036541, 0.835066, }, 
{0.45037752, -0.0845768, 1.1467512, -0.36446118, }, 
{-1.2757721, -1.2216581, -1.0403113, -0.12024758, }, 
{0.7218681, 0.6118438, 0.29571715, -0.016593955, }, 
}

{-0.3024533, -0.026860615, -0.22225305, -0.37448484, }

{{0.5256992, -0.68997794, }, 
{0.40662602, 0.4026097, }, 
{1.0345067, 0.8190971, }, 
{-0.031877227, -1.053572, }, 
}

{-0.28498104, 0.019299693, }

{{0.40500504, }, 
{-0.69357204, }, 
}

{0.02277468, }

