{[[[1.0214211]]

 [[0.9882081]]], [[[0.9143799]]

 [[1.4419307]]], }

{-0.010855804, }

{{0.37165707, -0.40430957, -0.12901263, 0.15480655, -0.1549167, 0.69206023, 0.20217095, 0.19298856, -0.2886539, 0.010518692, -0.07083629, 0.9471251, 0.8664939, 0.7469215, 0.90578204, -0.283433, }, 
{-0.19776969, 0.040165763, -0.00683934, -0.8032318, -0.70319134, -0.43503335, 0.2561462, 0.0676281, 0.027620401, -0.3618106, -0.16653793, -0.41162685, -0.33547884, -0.43772647, 0.0040783565, -0.34934708, }, 
{0.9626748, -0.10258293, -0.34111124, 0.43715286, -0.4806822, 1.0487114, 1.0420136, -0.1152006, 0.20723802, 0.15356806, -0.44523126, 0.75091374, 0.39064813, 0.44356057, 1.1427937, -0.048762698, }, 
{0.0898756, 0.024395104, -0.16963077, 0.62041974, -0.37356907, -0.4269537, -0.09411375, 0.011936763, -0.0029608214, 0.09916504, -0.10052125, -0.078093626, -0.05935994, -0.36105782, -0.3046979, -0.13514942, }, 
{0.396746, -0.40809417, -0.3117988, -0.44095036, -0.2672117, -0.4879917, -0.010042502, 0.111390986, -0.3691282, 0.3360131, -0.13639468, 0.31411877, -0.819175, -0.025511863, 0.31917998, -0.16450776, }, 
{-0.18220843, 0.13135019, 0.072508514, 0.25571436, 0.26772574, 0.2368968, -0.16523391, -0.48104417, -0.0881013, -0.3469498, 0.24176435, -0.08419654, -0.48049825, 0.54743296, -0.30448228, 0.09665665, }, 
{0.68712044, 0.015139539, 0.11693594, 0.3938147, 0.15276149, 0.69017226, 0.40115902, -0.2881554, 0.3644263, -0.37945387, -0.25990415, 0.5297181, 0.3745118, 0.086760424, 0.12718841, 0.040068652, }, 
{-0.38284698, -0.10601829, -0.30377206, -0.9605899, 0.017883213, -0.2718989, -0.22698712, 0.30720532, -0.17151587, -0.42110595, -0.3576209, 0.45820525, -0.0038833786, -0.15897006, -0.37171018, 0.101291835, }, 
{0.4367952, 0.15773518, -0.19208452, -1.4218502, -1.4978577, 0.39060426, 0.3543069, -0.47044188, -0.2070289, -0.25486198, -0.33574384, 0.4020079, 0.38466182, 0.7149942, -0.20415477, -0.13699818, }, 
{0.3243638, -0.05224561, 0.374488, 0.7542398, 0.036848444, 0.30343214, 0.35701412, -0.07000992, -0.3742628, 0.005121266, -0.04987799, 0.47503898, 0.9688239, 0.20490952, 0.28254896, 0.25954577, }, 
{-0.026398772, 0.10408211, -0.40679306, -0.46656564, 0.541461, -0.73985136, -0.029571828, -0.0024673617, -0.21471146, 0.022699323, -0.18613741, -0.37047154, 0.090424575, -0.34118968, -0.5446229, -0.14999503, }, 
{0.15981095, -0.4658427, 0.34200746, -2.9270902, -1.1681845, 0.22212046, 0.48960802, 0.34784204, -0.425991, 0.09396918, -0.14302522, 0.18761519, 0.85726625, 0.5615669, 0.71862936, 0.2517003, }, 
{-0.5052251, -0.14203998, -0.21048258, -0.7122341, -0.17011236, -0.89965063, -0.88304853, 0.044980686, 0.2963156, 0.083667025, 0.055931345, -0.43504578, -0.7517486, -0.10175883, -0.48873016, 0.12579274, }, 
{0.895076, -0.1309993, -0.008603096, 1.3677279, -2.065513, 0.7634258, 0.22443765, -0.33135107, -0.17855053, -0.010173919, 0.35218245, 0.5245708, 0.7958946, 0.84204894, 0.8102485, 0.08458246, }, 
{-0.9951677, -0.05403189, -0.2718539, -2.6891522, 0.45564052, -0.6307878, -0.72532827, -0.25410184, 0.24940893, -0.3659744, -0.4156847, -0.72149163, -0.43370366, 0.4275887, -0.98718274, -0.17749326, }, 
}

{0.04053469, -0.034211572, -0.016929619, -0.25847325, 0.89000684, 0.040613748, -0.0991956, -0.10442775, -0.052023787, -0.011716529, -0.0019543583, 0.14118358, -0.12326905, 0.19557607, -0.05810873, -0.023277573, }

{{0.056843888, -0.1153772, 0.6094265, 0.13652697, 0.7412963, 0.16531654, 0.41113022, 0.46040577, }, 
{-0.28005856, 0.15667427, -0.25955763, -0.09424374, 0.09232393, -0.035177946, 0.2803389, -0.2845833, }, 
{0.22359987, 0.29008922, 0.2398249, 0.4625523, 0.0928691, 0.09721686, -0.3999966, -0.14987552, }, 
{-0.13773464, 0.26935518, 1.6986036, 2.2319021, 2.4676638, -1.2646422, 1.5526131, 2.6059449, }, 
{-0.44650018, 0.23702224, -1.7592053, -1.4840784, -1.3383356, 2.1618934, -1.6208315, -1.5150988, }, 
{-0.3829016, -0.25016797, 0.93176043, 0.83914673, 0.13652487, 0.30999926, 0.65593857, 0.5819391, }, 
{-0.27645662, 0.00832275, 0.12109624, 0.6941574, 0.0011249525, 0.55579114, 0.53423196, 0.73176193, }, 
{0.03300707, 0.034453597, -0.29976508, -0.22587608, -0.06295094, 0.33899343, -0.47248873, -0.24437247, }, 
{0.074340016, -0.31126994, -0.28032705, 0.10351627, 0.33295894, -0.2707799, 0.16339202, 0.07278924, }, 
{0.1333046, -0.1202832, 0.12501957, 0.09120549, -0.19089627, 0.022064913, 0.30645844, -0.34303868, }, 
{-0.2709099, 0.034796234, -0.18800439, 0.41382474, 0.20439798, -0.17553139, -0.2834018, -0.058927495, }, 
{-0.02515054, -0.030331383, 0.9427639, 0.8383897, 0.6963527, -0.29873514, 0.8105692, 0.32350636, }, 
{0.11093369, 0.16972585, 0.74263984, 0.30100203, 0.19662957, 0.45239878, 0.57940423, 0.43930092, }, 
{0.027833741, -0.054000124, 0.29264265, 0.610685, 0.20097247, -0.7316206, 0.38388935, -0.017062694, }, 
{-0.062511235, -0.5629595, 0.99325454, 0.19365993, 1.2039866, 0.55680954, 1.0339622, 0.4463793, }, 
{0.16364902, -0.2254771, 0.14423165, -0.025321202, -0.44100764, 0.14251631, 0.42838803, -0.22798184, }, 
}

{-0.10141972, -0.074366, 0.16452917, 0.153999, 0.19024575, 0.0047203517, -0.017565224, 0.16494587, }

{{0.29013446, -0.4444156, 0.3157924, 0.6540532, }, 
{0.16980518, 0.16376445, -0.14417724, -0.13991168, }, 
{0.9537098, 1.1653389, 0.941255, 0.654046, }, 
{0.3756733, 0.90954894, 0.5676999, 0.7693984, }, 
{0.6702271, 0.57041615, 0.6999447, 0.007487534, }, 
{-4.448865, -4.973358, -4.399956, -4.1394305, }, 
{0.7470313, 0.81412506, 0.24775913, 0.88162524, }, 
{0.29225957, 1.0304099, 0.16802639, 0.043962333, }, 
}

{-0.07805636, 0.2014894, 0.1970984, -0.08421098, }

{{0.067509815, 0.55252266, }, 
{-0.07844493, 1.5796676, }, 
{-0.2765871, 1.4358882, }, 
{0.3452458, 0.5597604, }, 
}

{-0.09983196, -0.000244992, }

{{-0.98162866, }, 
{1.2859864, }, 
}

{0.0033431118, }

