{[[[ 0.5031037]]

 [[-1.1943668]]], [[[1.1884304 ]]

 [[0.15919141]]], }

{0.031817432, }

{[[[ 0.980233 ]]

 [[-2.0326009]]], [[[0.15641993]]

 [[0.1293441 ]]], }

{-0.042249326, }

{{0.028114513, 0.14115074, -0.7596182, -0.45216173, 1.9632068, -1.1361525, 2.0007827, -0.60919017, -1.4843904, -0.70890886, -1.1409081, -3.9168832, 2.0058393, -3.834855, -0.94839835, -0.30564082, }, 
{-0.88946605, -0.20174566, -1.1342117, 0.7685776, -0.9991824, -0.27439615, 0.9679049, 1.5804557, 0.58227915, -0.26640683, 2.1141198, -1.5843858, 0.5486696, 0.21486801, 0.5285858, 0.31330842, }, 
{1.6950445, 1.2089963, -0.2690099, 0.56573206, -0.31037828, 0.6945764, -0.3902347, -2.3587089, 0.5282625, 0.37267423, 2.1613967, -2.199097, 1.8299128, 1.2044935, -0.7251767, 0.4975673, }, 
{-0.9695606, -2.0173995, 0.5232503, 1.9671856, -2.00348, 2.1577487, 1.2163025, -0.19396916, -0.42879453, -0.93114823, 0.80113703, -1.2137604, 1.5795575, 0.6820323, 1.3584723, 1.4660316, }, 
{-1.26676, -0.4258463, 0.32313263, 0.55410266, -1.3342961, -0.5919534, -0.47933632, 1.234398, -1.4262104, -0.8587879, -0.41107526, -0.64351416, 0.34484667, 0.62807053, 0.5047402, -0.11029068, }, 
{-1.0623507, -0.36992812, 1.0302128, 0.6724337, 0.4322502, -0.12832294, 0.5008541, -0.20837076, -0.14733306, -1.9079882, 1.5502709, -1.021589, -1.384197, 0.20579447, -1.2222847, 0.03909008, }, 
{0.971591, 1.0465913, 0.35426268, -0.12868077, 0.54118025, 1.8261205, -0.5032436, 0.26794377, -0.61167413, 0.17576161, -1.1364362, -0.73231506, -0.029774733, -0.46452758, -0.27799255, -1.0383154, }, 
{0.39066017, -0.33636606, -1.1365215, -2.0170355, -0.34586436, 1.6421056, -1.7344548, 1.667522, 1.0360852, -1.8499182, 0.8711968, -0.58031315, 1.7253122, -1.3798417, 1.5900966, 0.30015734, }, 
{1.0005467, 1.7398133, 1.0029249, -0.66943276, 0.24864356, 0.016943209, 0.85828894, 2.673879, 0.25150636, -0.86092615, -0.3445214, 2.1288667, 1.2716467, -0.15565498, -0.33097622, 2.1739895, }, 
}

{-0.3758164, 0.06358077, -0.112667985, -0.28531867, 0.16365047, -0.039969556, 0.41541305, 0.48553464, 0.4825709, 0.71498674, 0.15508254, -0.3239007, 0.42748255, -0.86572576, -0.05635221, -0.47589615, }

{{-0.2529885, 0.5284687, 0.9454208, -0.896393, -0.7597855, -0.023652988, 1.2485582, -0.72312987, }, 
{-0.73233694, 1.5523405, -2.6248558, 0.83225787, 0.37135285, -1.3537167, 0.49927485, -0.4361141, }, 
{0.45143715, 0.285536, 0.46008453, 0.66624767, 2.5809827, 1.3436515, -1.475962, -0.18246287, }, 
{-2.3160756, -3.0447943, -0.58308375, -4.2739563, -2.017527, -2.7420137, 6.180409, -1.3701689, }, 
{1.3205274, 0.6413001, -1.0394669, -2.4667304, 0.77304393, 1.1148044, -0.075904325, -1.6162899, }, 
{-2.524595, 1.3330159, 0.34421006, 1.0480198, 1.7203737, 1.9800047, -2.3860579, 0.08292516, }, 
{1.0816758, 0.42354086, 0.4646658, 1.1729366, -0.99982464, -0.9808345, -0.22320428, -0.010986076, }, 
{1.1221055, -0.08996684, -1.8655546, 0.699043, 1.8699453, -0.98857874, -2.1086884, 0.116728246, }, 
{0.8913358, 2.0870454, 1.4276544, 0.097361, -0.87305117, -1.1674056, -0.5205743, 0.5306221, }, 
{0.18749663, 0.6487776, 0.23478001, 0.18815014, 0.32307026, -0.35177362, 0.013563307, 0.9816403, }, 
{1.7736235, 2.1852279, 0.19754839, 0.10232652, 2.0993917, 1.8994005, 0.73222965, -0.11836614, }, 
{-0.6186559, -0.8497056, -1.1060355, 0.27697912, -0.5574162, 1.1838794, 0.12772317, 0.56576246, }, 
{-0.4622265, 0.9817516, -1.6617657, 0.7489415, -1.0173947, 1.336098, 2.0574505, 0.20795316, }, 
{-2.6633575, 1.519152, 0.13088778, -0.45564553, 0.38247496, -4.6640954, -1.4374857, -2.8831608, }, 
{1.7439761, -0.9640539, -1.4656386, -2.7138536, -0.9333094, 0.27314267, 1.7295414, -1.3481132, }, 
{1.8897873, -2.5723681, 0.85469747, 0.07278904, 1.0656873, -0.5410053, 0.04268444, 0.1560762, }, 
}

{0.3490821, 0.1594505, -0.018635409, -0.25507367, 0.71509916, -0.16904093, -0.20382701, 0.65338093, }

{{0.56552327, 0.87852323, 0.5061195, -1.7626008, }, 
{0.088416204, 1.984766, 0.79768157, 0.10774756, }, 
{0.8190043, -0.40511298, -0.5585607, 0.05659651, }, 
{0.028615093, 1.1603546, 0.69182855, -0.6622023, }, 
{0.9830269, 0.64464545, 0.24458036, 0.7585282, }, 
{-0.6507012, 1.5752792, 1.4034636, 1.6333737, }, 
{0.9666535, -1.1628124, 0.25142285, -0.37965864, }, 
{0.0008410532, 1.9874802, 0.42723158, -2.1810837, }, 
}

{-0.08272619, 0.120374754, 0.12374189, 0.3390795, }

{{-0.6861702, 0.567493, }, 
{1.6235133, -0.023588672, }, 
{0.68106794, 1.7079412, }, 
{-2.3889554, 1.3034177, }, 
}

{0.12090593, -0.11039582, }

{{1.2043977, }, 
{-0.17826608, }, 
}

{0.12018511, }

