{[[[-0.5114122]]

 [[ 1.1474223]]], [[[1.2159991 ]]

 [[0.34990728]]], }

{0.26477632, }

{[[[-0.65016925]]

 [[ 0.5501548 ]]], [[[-0.48959467]]

 [[ 1.9322684 ]]], }

{0.3641441, }

{{-0.77956414, 0.8478649, 0.19543278, 0.24607895, 0.73526317, 0.42324623, 0.23417532, -0.5125173, -0.6806629, -1.3779557, 0.32634926, 1.8095369, 0.45830175, -0.3214026, -1.255905, 0.83908534, }, 
{0.12766139, -1.9304456, -0.39179844, -1.0655394, 0.018003995, -0.4668302, -0.9151849, 0.6191089, 0.9581525, 1.2446494, 0.49381545, -0.7906137, 1.243025, -0.39243227, -0.37591994, 0.5704944, }, 
{-0.42515483, -2.599615, -0.9280036, 1.2903694, -0.058529146, -1.46907, -0.1479898, -1.3971093, -1.771771, -0.09277151, 0.28641814, -0.95787185, 0.046277296, 2.6869812, -2.373097, -0.772551, }, 
{1.2105349, -1.4177562, 0.917138, -1.0855905, -0.010544275, 0.4838738, -1.4695247, 0.7406873, 0.6666628, -0.104669616, -1.6796373, 0.02878925, 2.1064165, 0.75999, 0.42814, -0.06833243, }, 
{0.43484613, -1.3638827, -0.94525677, -0.7439751, 0.08995046, 0.9765254, 1.7433463, 0.34440342, -0.26114365, -0.16232505, 0.33822972, -0.31521124, -0.58180094, -0.018218327, -0.16561401, -0.65928817, }, 
{-1.0788192, -0.35829026, 0.6094734, 0.6571327, 0.86319, -0.044029072, 0.8562242, 1.3958423, 0.09167791, -0.5720883, 1.3939002, 1.7240342, 1.2690703, -0.5842523, 1.2540373, -0.76143086, }, 
{2.0651143, 0.69745517, 1.3158467, -1.9719074, -0.048053477, -0.1713109, 0.14789549, 1.9403677, 0.12262079, -0.55084425, -1.4176518, -1.6321185, -1.221923, 0.72684515, -0.35601848, 0.28413266, }, 
{0.95361525, -0.97101957, -0.14440449, 0.57458055, -1.8913546, 1.1713938, 2.1493096, 1.3885894, 1.3197227, 0.43400386, -1.012899, 0.5474418, -1.0006347, -0.3050409, 0.34307316, -0.72528905, }, 
{0.46884754, 0.3832394, -0.95948726, -0.94434667, 2.0616336, 0.16850677, -0.6600186, 0.58595115, -0.06630528, -1.6928189, 1.6309865, 1.3679092, -1.9562134, 0.29326546, 0.9140809, 1.2612793, }, 
}

{-0.19471194, -0.7177098, 0.16034935, -0.28826833, 0.09730837, 0.6421819, -0.21687707, 0.14813764, -0.6167279, 0.119774155, 0.20795293, 0.30814466, 0.86622345, 0.3380894, 0.118402876, 0.35643432, }

{{-0.08326883, 0.38191098, 0.34956673, -1.0304207, 0.6941675, -0.48196235, 1.0645989, -1.7558066, }, 
{-1.2074921, 0.40738782, -1.6183408, -0.6078361, -0.8132726, -0.2218189, 0.8544562, -1.2581486, }, 
{3.207664, 0.66693616, -1.647148, -0.91919196, 0.009841202, -0.7481168, -0.4041595, -0.6612568, }, 
{-0.43005085, 0.2330104, 1.1248717, -1.8267688, -2.26963, 1.9816544, -0.49584958, 0.107909486, }, 
{1.3044356, -0.9975977, 0.16629773, 2.8046334, 2.4872718, 0.72062147, -2.0200853, 0.22407971, }, 
{0.6292298, 0.65214443, -0.7896644, 0.9807213, 1.0305297, 2.1796904, -1.5648117, 1.497457, }, 
{-0.9173507, -0.28640828, -1.8274612, 0.7623102, -1.2277931, -0.12758622, 1.1493497, -1.2204239, }, 
{1.5813469, 0.8765714, 2.2377555, -0.028466113, -0.044484165, 0.97288173, -0.93885887, 0.9743629, }, 
{0.8526009, -0.79012895, 1.0092449, 0.5463351, 0.8749946, -0.61356986, -1.5216668, 0.04622956, }, 
{-1.3188632, -1.0299428, -0.37645805, -0.17636248, -0.92241675, 0.7737772, 0.7565476, -1.6154228, }, 
{1.6223186, -2.7698548, -0.83637583, -0.27063435, -0.22973405, -1.6887913, 0.17273954, -0.4643739, }, 
{-0.8256826, -0.5625791, 0.14630786, 0.717794, 1.4764215, -0.9226034, -1.9288126, -1.479319, }, 
{-0.14183539, 0.7692563, -1.0300561, -0.84027684, 0.06109732, 1.0797937, -1.8254862, 0.27026227, }, 
{0.31841826, -1.356303, 1.2345984, 1.2409071, 1.2303517, 0.6975596, -1.4276519, 1.6276084, }, 
{0.38417447, 1.4350122, 1.9667283, -0.34930196, 0.51669437, -0.20718871, 0.31013778, -2.0024228, }, 
{-0.200843, -2.003071, 0.9523772, 2.0996947, 1.8250535, 2.322136, 0.13413467, -0.914347, }, 
}

{0.2545348, -0.1420217, -0.08634333, -0.019025404, 0.13104632, 0.06283688, -0.30787116, 0.011220103, }

{{-0.9537173, -1.6665711, -0.09706315, 0.008679682, }, 
{-0.71660745, -0.25943717, -1.6673459, 0.43780184, }, 
{-2.1548746, 1.7003621, 3.016312, 0.6908988, }, 
{-2.09398, 0.38560998, 0.43256283, 2.5253491, }, 
{-0.076782666, -0.658789, 1.2544335, -1.3059608, }, 
{-0.089857705, 1.7372794, -2.1765616, -0.20058735, }, 
{0.42353836, -0.21991202, 2.4099658, 0.5866492, }, 
{-0.37905034, -2.0430667, -0.56561697, 0.077414855, }, 
}

{0.0, 0.394666, -0.02686423, 0.04159439, }

{{1.0887456, -0.37714145, }, 
{-1.4373459, -1.5281692, }, 
{0.9245501, 0.89950734, }, 
{0.46955687, -0.61108404, }, 
}

{-0.791494, -0.17447193, }

{{0.6863821, }, 
{1.8357142, }, 
}

{-0.8326342, }

