{[[[-1.1832534]]

 [[-0.8265309]]], [[[ 0.07863788]]

 [[-1.1962851 ]]], }

{1.2502642, }

{[[[ 0.8930382]]

 [[-1.5827788]]], [[[-1.452593 ]]

 [[ 1.3653954]]], }

{-0.27224714, }

{{0.7828267, 0.012207318, 0.013016744, 1.3169965, -0.034077898, -0.05907058, 1.3717852, 1.4672856, 1.4059378, 1.2449504, 1.3024695, -0.040506605, -0.05660889, 1.4619292, 1.3637526, 1.2832719, }, 
{0.90251625, -0.011493804, -0.029089343, 0.80275303, -0.028090836, 0.008734929, 0.90858793, 0.90373045, 0.87602246, 0.8789234, 0.93320334, 0.0037225382, -0.09065734, 0.9206409, 0.91001636, 0.84208494, }, 
{-0.21657662, -0.14618821, -0.07766776, 0.46308693, -0.076528765, 0.06916506, 0.49865684, 0.5443474, 0.4261506, 0.41232958, 0.42768845, -0.03202149, 0.00044697733, 0.5186323, 0.47420886, 0.47978073, }, 
{1.1746489, 0.0068973685, -0.08690461, 0.58531517, -0.04561004, -0.020166839, 0.59317505, 0.5048036, 0.4716149, 0.58888847, 0.5470921, -0.007252421, -0.06183089, 0.520643, 0.5533182, 0.5273622, }, 
{-0.0841198, -0.03936689, 0.015722498, -0.19004706, -0.06300825, -0.10260348, -0.21859285, -0.103313416, -0.21038719, -0.18619794, -0.21883859, 0.026250193, -0.02579045, -0.17229281, -0.19460602, -0.16475831, }, 
{0.88637596, -0.010728358, -0.0136934, 1.1516743, -0.09983293, -0.16056645, 1.108596, 1.1655272, 1.122263, 1.1804934, 1.1824377, 0.043228183, -0.014507356, 1.0822583, 1.1490508, 1.1230962, }, 
{-1.3622022, -0.015159971, -0.015428062, -0.6976146, 0.023150815, -0.05421487, -0.7308769, -0.6141869, -0.776702, -0.6219744, -0.6600453, -0.02569121, -0.0042632287, -0.6607437, -0.69045407, -0.69672954, }, 
{0.27241048, -0.089380585, -0.109479, 2.1006455, -0.010522466, -0.023685625, 2.0679264, 1.9918143, 2.0022087, 1.9920378, 2.1138089, -0.014911983, -0.025884697, 2.0817032, 1.980661, 2.0278819, }, 
}

{-0.32220146, -0.031644493, -0.042783853, 0.022652317, -0.03176581, -0.03990329, 0.020658648, 0.024872003, 0.02213278, 0.021850808, 0.0203836, -0.02168168, -0.03176569, 0.020835416, 0.021210318, 0.020058325, }

{{0.13362391, -0.019804155, -4.969352, -4.957627, -4.9285026, 0.0037454944, 0.003669158, -4.973498, }, 
{0.14640404, 0.084396824, -0.036586475, -0.048585497, 0.039774444, -0.011450447, 0.12778588, 0.027029036, }, 
{0.05338066, -0.092654996, -0.018977806, -0.011157837, 0.047205415, 0.012009782, -0.026485596, 0.0010492271, }, 
{0.0013830393, 0.026506621, 0.80510986, 0.77969587, 0.7794956, -0.005455689, -0.0374206, 0.8452718, }, 
{-0.03576386, 0.05315138, -0.01378808, -0.027513819, -0.05184173, -0.00047521974, -0.01963606, 0.0119656995, }, 
{0.04617068, 0.06349485, 0.01866908, 0.03105607, 0.03508521, -0.07846023, 0.003090567, 0.014199647, }, 
{0.012877443, -0.08597224, 0.9085814, 0.8228291, 0.81398195, -0.06279757, -0.05219282, 0.8269897, }, 
{-0.023799798, -0.07238572, 0.7978585, 0.7983302, 0.80569524, -0.017327009, -0.07143216, 0.854908, }, 
{0.048978362, 0.010422045, 0.8581106, 0.86054313, 0.8736194, -0.102001265, 0.0084495535, 0.88794476, }, 
{0.04897902, -0.016010642, 0.7431037, 0.7000918, 0.7692447, -0.0827368, -0.03717141, 0.66675156, }, 
{-0.02007062, -0.04098698, 0.8721807, 0.7701066, 0.65057087, -0.064320765, -0.1281731, 0.8384853, }, 
{0.06733694, -0.010644875, 0.040507052, -0.0150332665, 0.054924402, -0.014237217, 0.04204949, -0.05314265, }, 
{0.03268419, 0.0701892, -0.11208347, -0.015195296, 0.07827204, 0.052819323, -0.06265134, 0.01433732, }, 
{-0.09761301, -0.011922055, 0.8797799, 0.86603326, 0.89935744, -0.058420528, -0.00840545, 0.87602973, }, 
{-0.010364318, -0.018753419, 0.7787202, 0.8241127, 0.7342401, 0.019446947, -0.022005854, 0.7731883, }, 
{-0.038400795, 0.02597424, 0.75457567, 0.7690261, 0.7509691, 0.037845217, 0.021379171, 0.7156227, }, 
}

{-0.005841358, -0.031266246, -0.00011950911, -9.006933e-05, -0.000110104236, -0.031618144, -0.029702319, -0.00010471353, }

{{-0.0035089112, 0.0054310737, -0.013287465, -0.0069456, }, 
{0.062720396, 0.009042735, 0.00921973, -0.022864293, }, 
{0.9038558, -0.011031631, 0.8519183, 0.5134659, }, 
{0.8891101, -0.048756268, 0.9107089, 0.6887737, }, 
{0.8729032, -0.049742244, 0.83877194, 0.6853067, }, 
{0.044628188, 0.0890033, -0.01902595, 0.05889977, }, 
{-0.02929134, 0.024299836, 0.049087282, 0.021417832, }, 
{0.8837697, 0.019230727, 0.8924706, 0.60254323, }, 
}

{0.00027018943, -0.006005446, 0.00026987278, 0.00012354512, }

{{0.90161645, 0.81783193, }, 
{-0.039585512, 0.043851547, }, 
{0.86358714, 0.8550766, }, 
{0.5660696, 0.6347805, }, 
}

{0.00068957626, 0.0006887019, }

{{0.8493286, }, 
{0.8450992, }, 
}

{0.01723991, }

