{{-0.7415378, -0.9161273, -1.3703973, -0.47528428, -1.2716722, -1.1047218, -0.45591083, 0.9516697, 0.35818374, -1.0794932, -0.79538596, -0.55133617, }, 
{0.34873113, -0.45805737, 0.10510015, 0.37488425, -0.5528173, -0.14046077, 0.5302695, 0.14621775, -0.015158947, 0.26855037, 0.061449908, -0.33510828, }, 
{-0.07146159, -0.13311015, 0.05993179, -0.19029063, -0.40437725, -0.6722459, -0.04579465, -0.28910324, -0.20517108, -0.755889, -0.64450085, -0.789919, }, 
{-0.8063181, 0.030809062, -0.76139903, -0.12502146, -0.6723012, -1.0056059, -0.5890805, 1.0354015, 0.5884231, -0.8937049, -0.461183, -0.64394635, }, 
{0.03282441, 0.8823757, 1.0509095, 0.43900052, 0.15813904, 0.8029779, 0.045295995, -1.2887484, 0.048127905, -0.009864321, 0.80308425, 0.7068398, }, 
{-0.67417985, -0.5083756, 0.29336068, 0.2696932, -0.47967514, -0.58228123, -0.2242473, -0.16384085, 0.4911308, -0.20150849, -0.16859107, 0.05434816, }, 
{-0.49734917, -0.31105214, 0.06368634, 0.37989238, 0.303527, 0.40604097, -0.3370907, -0.11018041, 0.21891315, -0.021411136, -0.4747303, -0.3228087, }, 
}

{-0.8311022, -0.79880863, -0.8976022, -0.7613886, -0.8898058, -0.870243, -0.79800814, 0.8489916, 0.8609831, -0.89011043, -0.77888334, -0.8419343, }

{{-0.7556692, -0.32012233, -0.6693912, 1.1301337, 0.37796268, 0.9989471, }, 
{-0.49404797, -1.1181635, -0.17798154, 0.45378587, 1.0610045, 0.33301342, }, 
{-1.1329962, -1.3471565, -0.41690585, 1.4189715, 1.2680174, 0.753114, }, 
{-0.5957772, -0.42390415, -0.8539236, 0.7420181, 0.37054965, 0.4495794, }, 
{-0.8724683, -0.9006906, -0.911233, 1.213876, 0.23641446, 0.14306827, }, 
{-1.1552827, -1.0709985, -0.87177604, 1.5795717, 1.047774, 1.3142174, }, 
{-0.50360554, 0.19179614, -0.8011395, 0.21133994, 0.478903, 0.101622604, }, 
{1.3753583, 0.9786077, 1.1332356, -1.0414982, -1.1793652, -0.84060585, }, 
{0.32505167, 0.18050395, 0.81310797, -0.31205857, -0.6061781, -0.07861848, }, 
{-1.1981529, -0.6077341, -0.4474042, 0.58493197, 1.2586497, 1.5153149, }, 
{-0.9937736, -0.29623947, -0.23897102, 0.47940692, 0.34506428, 0.5702697, }, 
{-1.0198343, -0.8901442, -1.0585473, 0.6453249, 1.0276978, 0.029586622, }, 
}

{0.76712203, 0.78327113, 0.7720904, -0.80295575, -0.78095657, -0.7709393, }

{{-1.5255189, 1.5635262, -1.2319654, }, 
{-1.9809749, 2.0633926, -0.4503107, }, 
{-1.3821204, 0.15876196, -1.1313622, }, 
{1.2341034, -2.0306284, 1.9882251, }, 
{1.3726575, -1.4383448, 0.8293469, }, 
{2.0188632, -1.5280361, 2.0973647, }, 
}

{-0.70579034, 0.72682357, -0.72186214, }

{{-1.765333, }, 
{1.5394164, }, 
{-1.5504243, }, 
}

{0.65765077, }

